<?xml version="1.0"?>
<opencv_storage>
<cascade>
  <stageType>BOOST</stageType>
  <featureType>HAAR</featureType>
  <height>24</height>
  <width>24</width>
  <stageParams>
    <boostType>GAB</boostType>
    <minHitRate>9.9500000476837158e-01</minHitRate>
    <maxFalseAlarm>5.0000000000000000e-01</maxFalseAlarm>
    <weightTrimRate>9.4999999999999996e-01</weightTrimRate>
    <maxDepth>1</maxDepth>
    <maxWeakCount>100</maxWeakCount></stageParams>
  <featureParams>
    <maxCatCount>0</maxCatCount>
    <featSize>1</featSize>
    <mode>BASIC</mode></featureParams>
  <stageNum>36</stageNum>
  <stages>
    <!-- stage 0 -->
    <_>
      <maxWeakCount>4</maxWeakCount>
      <stageThreshold>-5.4034572839736938e-01</stageThreshold>
      <weakClassifiers>
        <_>
          <internalNodes>
            0 -1 44 -5.9407752007246017e-02</internalNodes>
          <leafValues>
            -7.2727274894714355e-01 6.8421053886413574e-01</leafValues></_>
        <_>
          <internalNodes>
            0 -1 106 -4.7989755868911743e-02</internalNodes>
          <leafValues>
            -3.4884375333786011e-01 9.2505037784576416e-01</leafValues></_>
        <_>
          <internalNodes>
            0 -1 41 -8.7842401117086411e-03</internalNodes>
          <leafValues>
            8.5670691728591919e-01 -3.0295470356941223e-01</leafValues></_>
        <_>
          <internalNodes>
            0 -1 153 5.3719580173492432e-03</internalNodes>
          <leafValues>
            -3.2093614339828491e-01 8.5635107755661011e-01</leafValues></_></weakClassifiers></_>
    <!-- stage 1 -->
    <_>
      <maxWeakCount>2</maxWeakCount>
      <stageThreshold>1.2850652635097504e-01</stageThreshold>
      <weakClassifiers>
        <_>
          <internalNodes>
            0 -1 82 -9.0752556920051575e-02</internalNodes>
          <leafValues>
            -8.3333331346511841e-01 5.9523808956146240e-01</leafValues></_>
        <_>
          <internalNodes>
            0 -1 73 3.3404361456632614e-03</internalNodes>
          <leafValues>
            -3.5068762302398682e-01 9.6183985471725464e-01</leafValues></_></weakClassifiers></_>
    <!-- stage 2 -->
    <_>
      <maxWeakCount>2</maxWeakCount>
      <stageThreshold>9.0061053633689880e-02</stageThreshold>
      <weakClassifiers>
        <_>
          <internalNodes>
            0 -1 39 -1.2131257972214371e-04</internalNodes>
          <leafValues>
            -6.7567569017410278e-01 5.4216867685317993e-01</leafValues></_>
        <_>
          <internalNodes>
            0 -1 143 7.0971520617604256e-03</internalNodes>
          <leafValues>
            -4.5210760831832886e-01 7.9080384969711304e-01</leafValues></_></weakClassifiers></_>
    <!-- stage 3 -->
    <_>
      <maxWeakCount>3</maxWeakCount>
      <stageThreshold>-1.2506921589374542e-01</stageThreshold>
      <weakClassifiers>
        <_>
          <internalNodes>
            0 -1 43 -5.8622546494007111e-02</internalNodes>
          <leafValues>
            -5.4545456171035767e-01 5.7894736528396606e-01</leafValues></_>
        <_>
          <internalNodes>
            0 -1 67 -8.6260761599987745e-04</internalNodes>
          <leafValues>
            7.7079433202743530e-01 -3.9409697055816650e-01</leafValues></_>
        <_>
          <internalNodes>
            0 -1 165 4.5251133851706982e-03</internalNodes>
          <leafValues>
            -3.0991962552070618e-01 9.3475633859634399e-01</leafValues></_></weakClassifiers></_>
    <!-- stage 4 -->
    <_>
      <maxWeakCount>5</maxWeakCount>
      <stageThreshold>1.7479851841926575e-02</stageThreshold>
      <weakClassifiers>
        <_>
          <internalNodes>
            0 -1 141 2.8352180379442871e-04</internalNodes>
          <leafValues>
            -1.6279070079326630e-01 1.</leafValues></_>
        <_>
          <internalNodes>
            0 -1 148 4.6617709449492395e-04</internalNodes>
          <leafValues>
            -3.5955426096916199e-01 7.2718715667724609e-01</leafValues></_>
        <_>
          <internalNodes>
            0 -1 77 -2.0485307322815061e-04</internalNodes>
          <leafValues>
            8.1950873136520386e-01 -3.7528222799301147e-01</leafValues></_>
        <_>
          <internalNodes>
            0 -1 55 -3.0042190104722977e-02</internalNodes>
          <leafValues>
            -8.3855086565017700e-01 4.3737667798995972e-01</leafValues></_>
        <_>
          <internalNodes>
            0 -1 30 -5.6109651923179626e-03</internalNodes>
          <leafValues>
            6.9860398769378662e-01 -5.2787446975708008e-01</leafValues></_></weakClassifiers></_>
    <!-- stage 5 -->
    <_>
      <maxWeakCount>4</maxWeakCount>
      <stageThreshold>-5.4243010282516479e-01</stageThreshold>
      <weakClassifiers>
        <_>
          <internalNodes>
            0 -1 11 -3.9999295026063919e-02</internalNodes>
          <leafValues>
            -7.8571426868438721e-01 4.5652174949645996e-01</leafValues></_>
        <_>
          <internalNodes>
            0 -1 76 -8.6171645671129227e-04</internalNodes>
          <leafValues>
            8.8250929117202759e-01 -3.4991315007209778e-01</leafValues></_>
        <_>
          <internalNodes>
            0 -1 65 1.5889678616076708e-03</internalNodes>
          <leafValues>
            -2.9339596629142761e-01 9.2156302928924561e-01</leafValues></_>
        <_>
          <internalNodes>
            0 -1 46 -5.1147781778126955e-04</internalNodes>
          <leafValues>
            7.4357587099075317e-01 -3.5564273595809937e-01</leafValues></_></weakClassifiers></_>
    <!-- stage 6 -->
    <_>
      <maxWeakCount>5</maxWeakCount>
      <stageThreshold>-4.3167066574096680e-01</stageThreshold>
      <weakClassifiers>
        <_>
          <internalNodes>
            0 -1 2 2.7839192748069763e-01</internalNodes>
          <leafValues>
            6.2025314569473267e-01 -7.0731705427169800e-01</leafValues></_>
        <_>
          <internalNodes>
            0 -1 136 -5.8132016420131549e-05</internalNodes>
          <leafValues>
            6.6534554958343506e-01 -5.1487964391708374e-01</leafValues></_>
        <_>
          <internalNodes>
            0 -1 1 -9.3042370281182230e-05</internalNodes>
          <leafValues>
            -6.6284698247909546e-01 4.6778306365013123e-01</leafValues></_>
        <_>
          <internalNodes>
            0 -1 70 -6.2394043197855353e-04</internalNodes>
          <leafValues>
            1. -3.5750359296798706e-01</leafValues></_>
        <_>
          <internalNodes>
            0 -1 157 2.6379881892353296e-03</internalNodes>
          <leafValues>
            -4.7050809860229492e-01 6.8024659156799316e-01</leafValues></_></weakClassifiers></_>
    <!-- stage 7 -->
    <_>
      <maxWeakCount>5</maxWeakCount>
      <stageThreshold>-2.0229163765907288e-01</stageThreshold>
      <weakClassifiers>
        <_>
          <internalNodes>
            0 -1 15 -8.9856442064046860e-03</internalNodes>
          <leafValues>
            1. -2.1951219439506531e-01</leafValues></_>
        <_>
          <internalNodes>
            0 -1 7 -1.8193818395957351e-03</internalNodes>
          <leafValues>
            8.4471577405929565e-01 -1.9882224500179291e-01</leafValues></_>
        <_>
          <internalNodes>
            0 -1 123 -7.1990297874435782e-04</internalNodes>
          <leafValues>
            9.4050186872482300e-01 -2.4849811196327209e-01</leafValues></_>
        <_>
          <internalNodes>
            0 -1 118 9.9836592562496662e-04</internalNodes>
          <leafValues>
            -2.5369626283645630e-01 8.4341460466384888e-01</leafValues></_>
        <_>
          <internalNodes>
            0 -1 85 -1.2556647416204214e-03</internalNodes>
          <leafValues>
            8.1699228286743164e-01 -3.2530081272125244e-01</leafValues></_></weakClassifiers></_>
    <!-- stage 8 -->
    <_>
      <maxWeakCount>4</maxWeakCount>
      <stageThreshold>3.1049066781997681e-01</stageThreshold>
      <weakClassifiers>
        <_>
          <internalNodes>
            0 -1 4 -6.7402172088623047e-01</internalNodes>
          <leafValues>
            7.2307693958282471e-01 -4.9090909957885742e-01</leafValues></_>
        <_>
          <internalNodes>
            0 -1 21 -3.3360328525304794e-02</internalNodes>
          <leafValues>
            9.0797328948974609e-01 -2.6458629965782166e-01</leafValues></_>
        <_>
          <internalNodes>
            0 -1 146 -5.6928233243525028e-03</internalNodes>
          <leafValues>
            3.5878190398216248e-01 -1.</leafValues></_>
        <_>
          <internalNodes>
            0 -1 137 -1.5736930072307587e-03</internalNodes>
          <leafValues>
            8.2162833213806152e-01 -4.6535542607307434e-01</leafValues></_></weakClassifiers></_>
    <!-- stage 9 -->
    <_>
      <maxWeakCount>5</maxWeakCount>
      <stageThreshold>-2.3989044129848480e-01</stageThreshold>
      <weakClassifiers>
        <_>
          <internalNodes>
            0 -1 32 -1.6955472528934479e-02</internalNodes>
          <leafValues>
            7.8260868787765503e-01 -2.1621622145175934e-01</leafValues></_>
        <_>
          <internalNodes>
            0 -1 111 -9.9416494369506836e-02</internalNodes>
          <leafValues>
            -8.3438032865524292e-01 3.2545557618141174e-01</leafValues></_>
        <_>
          <internalNodes>
            0 -1 69 5.8715950697660446e-02</internalNodes>
          <leafValues>
            3.9340147376060486e-01 -6.5536081790924072e-01</leafValues></_>
        <_>
          <internalNodes>
            0 -1 51 8.6839711293578148e-03</internalNodes>
          <leafValues>
            -2.9996651411056519e-01 9.3058407306671143e-01</leafValues></_>
        <_>
          <internalNodes>
            0 -1 93 -2.9820221243426204e-04</internalNodes>
          <leafValues>
            6.6424965858459473e-01 -3.9262741804122925e-01</leafValues></_></weakClassifiers></_>
    <!-- stage 10 -->
    <_>
      <maxWeakCount>4</maxWeakCount>
      <stageThreshold>1.4875612221658230e-02</stageThreshold>
      <weakClassifiers>
        <_>
          <internalNodes>
            0 -1 24 -4.2485444282647222e-05</internalNodes>
          <leafValues>
            -5.6097561120986938e-01 5.4430377483367920e-01</leafValues></_>
        <_>
          <internalNodes>
            0 -1 129 1.2191624846309423e-03</internalNodes>
          <leafValues>
            5.1189690828323364e-01 -5.0081390142440796e-01</leafValues></_>
        <_>
          <internalNodes>
            0 -1 125 -6.1121856560930610e-05</internalNodes>
          <leafValues>
            -6.5940076112747192e-01 4.6857479214668274e-01</leafValues></_>
        <_>
          <internalNodes>
            0 -1 31 -2.1402902901172638e-02</internalNodes>
          <leafValues>
            8.5604864358901978e-01 -3.8192433118820190e-01</leafValues></_></weakClassifiers></_>
    <!-- stage 11 -->
    <_>
      <maxWeakCount>5</maxWeakCount>
      <stageThreshold>-2.7769741415977478e-01</stageThreshold>
      <weakClassifiers>
        <_>
          <internalNodes>
            0 -1 64 -2.5024428963661194e-02</internalNodes>
          <leafValues>
            7.5000000000000000e-01 -3.4375000000000000e-01</leafValues></_>
        <_>
          <internalNodes>
            0 -1 168 -6.8423464894294739e-02</internalNodes>
          <leafValues>
            6.0763800144195557e-01 -4.1100683808326721e-01</leafValues></_>
        <_>
          <internalNodes>
            0 -1 89 -3.0133228749036789e-02</internalNodes>
          <leafValues>
            -5.3456109762191772e-01 5.4073941707611084e-01</leafValues></_>
        <_>
          <internalNodes>
            0 -1 80 2.7387874433770776e-04</internalNodes>
          <leafValues>
            -3.6918887495994568e-01 8.5346519947052002e-01</leafValues></_>
        <_>
          <internalNodes>
            0 -1 173 -5.2142317872494459e-04</internalNodes>
          <leafValues>
            -9.6866381168365479e-01 3.6216458678245544e-01</leafValues></_></weakClassifiers></_>
    <!-- stage 12 -->
    <_>
      <maxWeakCount>5</maxWeakCount>
      <stageThreshold>-3.0941507220268250e-01</stageThreshold>
      <weakClassifiers>
        <_>
          <internalNodes>
            0 -1 163 -1.4417327474802732e-04</internalNodes>
          <leafValues>
            -7.5999999046325684e-01 4.1052630543708801e-01</leafValues></_>
        <_>
          <internalNodes>
            0 -1 81 1.3338020071387291e-03</internalNodes>
          <leafValues>
            -3.2931366562843323e-01 9.2742103338241577e-01</leafValues></_>
        <_>
          <internalNodes>
            0 -1 87 -3.5863560624420643e-03</internalNodes>
          <leafValues>
            -2.3557545244693756e-01 8.8096153736114502e-01</leafValues></_>
        <_>
          <internalNodes>
            0 -1 50 6.2579574296250939e-04</internalNodes>
          <leafValues>
            3.8293334841728210e-01 -7.4469590187072754e-01</leafValues></_>
        <_>
          <internalNodes>
            0 -1 130 -1.7557860701344907e-04</internalNodes>
          <leafValues>
            -5.1718056201934814e-01 5.8964359760284424e-01</leafValues></_></weakClassifiers></_>
    <!-- stage 13 -->
    <_>
      <maxWeakCount>5</maxWeakCount>
      <stageThreshold>-1.9932630658149719e-01</stageThreshold>
      <weakClassifiers>
        <_>
          <internalNodes>
            0 -1 6 -8.2229413092136383e-03</internalNodes>
          <leafValues>
            7.4468082189559937e-01 -2.0547945797443390e-01</leafValues></_>
        <_>
          <internalNodes>
            0 -1 161 -5.2689818403450772e-05</internalNodes>
          <leafValues>
            -5.5998766422271729e-01 4.5030650496482849e-01</leafValues></_>
        <_>
          <internalNodes>
            0 -1 76 -8.6420087609440088e-04</internalNodes>
          <leafValues>
            7.3626840114593506e-01 -3.7389662861824036e-01</leafValues></_>
        <_>
          <internalNodes>
            0 -1 16 -7.1485097578261048e-05</internalNodes>
          <leafValues>
            -6.0207861661911011e-01 4.1389217972755432e-01</leafValues></_>
        <_>
          <internalNodes>
            0 -1 170 -7.9151577665470541e-05</internalNodes>
          <leafValues>
            -4.1833841800689697e-01 6.6657507419586182e-01</leafValues></_></weakClassifiers></_>
    <!-- stage 14 -->
    <_>
      <maxWeakCount>5</maxWeakCount>
      <stageThreshold>-2.3615649342536926e-01</stageThreshold>
      <weakClassifiers>
        <_>
          <internalNodes>
            0 -1 72 -3.9769811555743217e-03</internalNodes>
          <leafValues>
            5.4666668176651001e-01 -4.6666666865348816e-01</leafValues></_>
        <_>
          <internalNodes>
            0 -1 10 1.0348292562412098e-04</internalNodes>
          <leafValues>
            5.1964998245239258e-01 -6.1733621358871460e-01</leafValues></_>
        <_>
          <internalNodes>
            0 -1 26 6.9282567128539085e-03</internalNodes>
          <leafValues>
            -3.1657245755195618e-01 8.8316273689270020e-01</leafValues></_>
        <_>
          <internalNodes>
            0 -1 84 -1.5121673233807087e-02</internalNodes>
          <leafValues>
            9.4026011228561401e-01 -2.4761520326137543e-01</leafValues></_>
        <_>
          <internalNodes>
            0 -1 78 -1.9976125622633845e-04</internalNodes>
          <leafValues>
            -7.3822438716888428e-01 3.9870068430900574e-01</leafValues></_></weakClassifiers></_>
    <!-- stage 15 -->
    <_>
      <maxWeakCount>6</maxWeakCount>
      <stageThreshold>-1.2765273451805115e-01</stageThreshold>
      <weakClassifiers>
        <_>
          <internalNodes>
            0 -1 113 -2.2631781175732613e-03</internalNodes>
          <leafValues>
            6.3333332538604736e-01 -3.0000001192092896e-01</leafValues></_>
        <_>
          <internalNodes>
            0 -1 128 -2.3235303815454245e-03</internalNodes>
          <leafValues>
            8.3632230758666992e-01 -2.3392423987388611e-01</leafValues></_>
        <_>
          <internalNodes>
            0 -1 140 1.0869154357351363e-04</internalNodes>
          <leafValues>
            5.3689610958099365e-01 -4.8498576879501343e-01</leafValues></_>
        <_>
          <internalNodes>
            0 -1 155 2.4961870163679123e-02</internalNodes>
          <leafValues>
            -2.2548535466194153e-01 1.</leafValues></_>
        <_>
          <internalNodes>
            0 -1 62 -4.7618255019187927e-02</internalNodes>
          <leafValues>
            -4.3717294931411743e-01 5.4763555526733398e-01</leafValues></_>
        <_>
          <internalNodes>
            0 -1 150 -6.9382926449179649e-04</internalNodes>
          <leafValues>
            6.4739233255386353e-01 -4.0129962563514709e-01</leafValues></_></weakClassifiers></_>
    <!-- stage 16 -->
    <_>
      <maxWeakCount>5</maxWeakCount>
      <stageThreshold>-7.0884150266647339e-01</stageThreshold>
      <weakClassifiers>
        <_>
          <internalNodes>
            0 -1 166 9.1187318321317434e-04</internalNodes>
          <leafValues>
            4.8148149251937866e-01 -4.8717948794364929e-01</leafValues></_>
        <_>
          <internalNodes>
            0 -1 127 7.1720383130013943e-04</internalNodes>
          <leafValues>
            -3.2957753539085388e-01 7.7504634857177734e-01</leafValues></_>
        <_>
          <internalNodes>
            0 -1 9 -2.9793707653880119e-04</internalNodes>
          <leafValues>
            -7.7634400129318237e-01 3.0444619059562683e-01</leafValues></_>
        <_>
          <internalNodes>
            0 -1 99 3.9505332708358765e-02</internalNodes>
          <leafValues>
            2.9437476396560669e-01 -8.9671069383621216e-01</leafValues></_>
        <_>
          <internalNodes>
            0 -1 138 -4.9564587243366987e-05</internalNodes>
          <leafValues>
            -4.9090543389320374e-01 5.0480824708938599e-01</leafValues></_></weakClassifiers></_>
    <!-- stage 17 -->
    <_>
      <maxWeakCount>4</maxWeakCount>
      <stageThreshold>-8.4463608264923096e-01</stageThreshold>
      <weakClassifiers>
        <_>
          <internalNodes>
            0 -1 14 -4.1867971420288086e-02</internalNodes>
          <leafValues>
            6.9811320304870605e-01 -2.5373134016990662e-01</leafValues></_>
        <_>
          <internalNodes>
            0 -1 0 -1.7207709606736898e-04</internalNodes>
          <leafValues>
            -6.3626217842102051e-01 4.5595073699951172e-01</leafValues></_>
        <_>
          <internalNodes>
            0 -1 126 7.2226934134960175e-03</internalNodes>
          <leafValues>
            -3.4894734621047974e-01 6.8373513221740723e-01</leafValues></_>
        <_>
          <internalNodes>
            0 -1 47 -7.5337142334319651e-05</internalNodes>
          <leafValues>
            -7.9708725214004517e-01 3.9430481195449829e-01</leafValues></_></weakClassifiers></_>
    <!-- stage 18 -->
    <_>
      <maxWeakCount>4</maxWeakCount>
      <stageThreshold>-2.5675562024116516e-01</stageThreshold>
      <weakClassifiers>
        <_>
          <internalNodes>
            0 -1 167 -2.9347976669669151e-04</internalNodes>
          <leafValues>
            -5.7894736528396606e-01 5.1219511032104492e-01</leafValues></_>
        <_>
          <internalNodes>
            0 -1 29 3.5853753797709942e-03</internalNodes>
          <leafValues>
            -4.1544079780578613e-01 6.6630333662033081e-01</leafValues></_>
        <_>
          <internalNodes>
            0 -1 162 -7.8221914009191096e-05</internalNodes>
          <leafValues>
            -6.5508884191513062e-01 4.3315669894218445e-01</leafValues></_>
        <_>
          <internalNodes>
            0 -1 172 -9.3072745949029922e-04</internalNodes>
          <leafValues>
            -7.8666663169860840e-01 4.5378085970878601e-01</leafValues></_></weakClassifiers></_>
    <!-- stage 19 -->
    <_>
      <maxWeakCount>5</maxWeakCount>
      <stageThreshold>-3.7339225411415100e-01</stageThreshold>
      <weakClassifiers>
        <_>
          <internalNodes>
            0 -1 9 -2.8695876244455576e-04</internalNodes>
          <leafValues>
            -7.3913043737411499e-01 3.8144329190254211e-01</leafValues></_>
        <_>
          <internalNodes>
            0 -1 22 -1.3413125649094582e-02</internalNodes>
          <leafValues>
            8.2170182466506958e-01 -3.0299332737922668e-01</leafValues></_>
        <_>
          <internalNodes>
            0 -1 115 -8.2827777077909559e-05</internalNodes>
          <leafValues>
            6.0279309749603271e-01 -3.4270030260086060e-01</leafValues></_>
        <_>
          <internalNodes>
            0 -1 159 -3.4520612098276615e-04</internalNodes>
          <leafValues>
            -7.4172472953796387e-01 3.3339813351631165e-01</leafValues></_>
        <_>
          <internalNodes>
            0 -1 144 -7.3675211751833558e-05</internalNodes>
          <leafValues>
            6.4950788021087646e-01 -4.4254007935523987e-01</leafValues></_></weakClassifiers></_>
    <!-- stage 20 -->
    <_>
      <maxWeakCount>6</maxWeakCount>
      <stageThreshold>-4.5337766408920288e-01</stageThreshold>
      <weakClassifiers>
        <_>
          <internalNodes>
            0 -1 38 4.6126107918098569e-04</internalNodes>
          <leafValues>
            4.5454546809196472e-01 -6.2500000000000000e-01</leafValues></_>
        <_>
          <internalNodes>
            0 -1 42 2.1646800450980663e-03</internalNodes>
          <leafValues>
            -3.1814065575599670e-01 8.1807774305343628e-01</leafValues></_>
        <_>
          <internalNodes>
            0 -1 98 1.2474629329517484e-03</internalNodes>
          <leafValues>
            -2.7331146597862244e-01 7.3278599977493286e-01</leafValues></_>
        <_>
          <internalNodes>
            0 -1 96 1.4716614969074726e-03</internalNodes>
          <leafValues>
            -3.1705144047737122e-01 8.2276886701583862e-01</leafValues></_>
        <_>
          <internalNodes>
            0 -1 8 -5.1521950808819383e-05</internalNodes>
          <leafValues>
            -6.7084723711013794e-01 4.2232152819633484e-01</leafValues></_>
        <_>
          <internalNodes>
            0 -1 91 6.4734579063951969e-04</internalNodes>
          <leafValues>
            -3.3466979861259460e-01 9.1182315349578857e-01</leafValues></_></weakClassifiers></_>
    <!-- stage 21 -->
    <_>
      <maxWeakCount>4</maxWeakCount>
      <stageThreshold>-1.3144877552986145e-01</stageThreshold>
      <weakClassifiers>
        <_>
          <internalNodes>
            0 -1 124 -1.8104707123711705e-04</internalNodes>
          <leafValues>
            6.6666668653488159e-01 -2.4242424964904785e-01</leafValues></_>
        <_>
          <internalNodes>
            0 -1 175 -7.2968730819411576e-05</internalNodes>
          <leafValues>
            -5.4148656129837036e-01 4.0269950032234192e-01</leafValues></_>
        <_>
          <internalNodes>
            0 -1 90 -1.7166925594210625e-02</internalNodes>
          <leafValues>
            2.8480410575866699e-01 -8.1912535429000854e-01</leafValues></_>
        <_>
          <internalNodes>
            0 -1 5 1.6648545861244202e-03</internalNodes>
          <leafValues>
            -3.8168960809707642e-01 6.0602867603302002e-01</leafValues></_></weakClassifiers></_>
    <!-- stage 22 -->
    <_>
      <maxWeakCount>6</maxWeakCount>
      <stageThreshold>1.8014949560165405e-01</stageThreshold>
      <weakClassifiers>
        <_>
          <internalNodes>
            0 -1 37 1.0796161950565875e-04</internalNodes>
          <leafValues>
            4.1573032736778259e-01 -5.4838711023330688e-01</leafValues></_>
        <_>
          <internalNodes>
            0 -1 35 5.5057117715477943e-03</internalNodes>
          <leafValues>
            -2.4527737498283386e-01 9.0059816837310791e-01</leafValues></_>
        <_>
          <internalNodes>
            0 -1 23 -2.5237952359020710e-03</internalNodes>
          <leafValues>
            7.4176812171936035e-01 -2.4492064118385315e-01</leafValues></_>
        <_>
          <internalNodes>
            0 -1 102 -4.6693771146237850e-03</internalNodes>
          <leafValues>
            -6.2350416183471680e-01 3.8800692558288574e-01</leafValues></_>
        <_>
          <internalNodes>
            0 -1 36 4.3422860471764579e-05</internalNodes>
          <leafValues>
            4.0959000587463379e-01 -5.5994796752929688e-01</leafValues></_>
        <_>
          <internalNodes>
            0 -1 100 -1.7535593360662460e-04</internalNodes>
          <leafValues>
            -5.1815742254257202e-01 4.8658096790313721e-01</leafValues></_></weakClassifiers></_>
    <!-- stage 23 -->
    <_>
      <maxWeakCount>5</maxWeakCount>
      <stageThreshold>-1.0733267664909363e-01</stageThreshold>
      <weakClassifiers>
        <_>
          <internalNodes>
            0 -1 174 -2.2913984139449894e-04</internalNodes>
          <leafValues>
            -7.1428573131561279e-01 3.5353535413742065e-01</leafValues></_>
        <_>
          <internalNodes>
            0 -1 149 -9.0316275600343943e-04</internalNodes>
          <leafValues>
            7.4497264623641968e-01 -3.0866533517837524e-01</leafValues></_>
        <_>
          <internalNodes>
            0 -1 33 5.2029779180884361e-04</internalNodes>
          <leafValues>
            -2.8027731180191040e-01 6.2128323316574097e-01</leafValues></_>
        <_>
          <internalNodes>
            0 -1 49 7.6997157884761691e-04</internalNodes>
          <leafValues>
            -3.4449863433837891e-01 6.6387820243835449e-01</leafValues></_>
        <_>
          <internalNodes>
            0 -1 86 1.3352500900509767e-05</internalNodes>
          <leafValues>
            4.8130998015403748e-01 -4.2898729443550110e-01</leafValues></_></weakClassifiers></_>
    <!-- stage 24 -->
    <_>
      <maxWeakCount>5</maxWeakCount>
      <stageThreshold>-2.6665851473808289e-02</stageThreshold>
      <weakClassifiers>
        <_>
          <internalNodes>
            0 -1 139 -5.5291034281253815e-02</internalNodes>
          <leafValues>
            -2.9032257199287415e-01 6.5517240762710571e-01</leafValues></_>
        <_>
          <internalNodes>
            0 -1 95 3.1341235153377056e-03</internalNodes>
          <leafValues>
            -2.3960763216018677e-01 8.8746696710586548e-01</leafValues></_>
        <_>
          <internalNodes>
            0 -1 164 1.6927463002502918e-03</internalNodes>
          <leafValues>
            -4.5904222130775452e-01 6.2471127510070801e-01</leafValues></_>
        <_>
          <internalNodes>
            0 -1 105 -2.5167895480990410e-02</internalNodes>
          <leafValues>
            -4.8294574022293091e-01 5.1650863885879517e-01</leafValues></_>
        <_>
          <internalNodes>
            0 -1 79 2.0427486742846668e-04</internalNodes>
          <leafValues>
            -4.9969702959060669e-01 5.2605110406875610e-01</leafValues></_></weakClassifiers></_>
    <!-- stage 25 -->
    <_>
      <maxWeakCount>6</maxWeakCount>
      <stageThreshold>-5.3288710117340088e-01</stageThreshold>
      <weakClassifiers>
        <_>
          <internalNodes>
            0 -1 63 -9.8489280790090561e-03</internalNodes>
          <leafValues>
            6.8000000715255737e-01 -2.0000000298023224e-01</leafValues></_>
        <_>
          <internalNodes>
            0 -1 59 1.4297212474048138e-02</internalNodes>
          <leafValues>
            -1.7282979190349579e-01 8.5686725378036499e-01</leafValues></_>
        <_>
          <internalNodes>
            0 -1 116 -6.6476510837674141e-03</internalNodes>
          <leafValues>
            6.2908452749252319e-01 -3.8816097378730774e-01</leafValues></_>
        <_>
          <internalNodes>
            0 -1 145 1.9051341805607080e-03</internalNodes>
          <leafValues>
            3.9829131960868835e-01 -6.2739741802215576e-01</leafValues></_>
        <_>
          <internalNodes>
            0 -1 61 -5.1352173089981079e-02</internalNodes>
          <leafValues>
            -6.1324572563171387e-01 3.5606825351715088e-01</leafValues></_>
        <_>
          <internalNodes>
            0 -1 142 1.3585480337496847e-04</internalNodes>
          <leafValues>
            -5.2625590562820435e-01 5.3986155986785889e-01</leafValues></_></weakClassifiers></_>
    <!-- stage 26 -->
    <_>
      <maxWeakCount>6</maxWeakCount>
      <stageThreshold>-1.8332032859325409e-01</stageThreshold>
      <weakClassifiers>
        <_>
          <internalNodes>
            0 -1 160 -3.1948329706210643e-05</internalNodes>
          <leafValues>
            -4.2857143282890320e-01 4.8717948794364929e-01</leafValues></_>
        <_>
          <internalNodes>
            0 -1 103 1.3287456240504980e-03</internalNodes>
          <leafValues>
            -1.9857977330684662e-01 9.3583738803863525e-01</leafValues></_>
        <_>
          <internalNodes>
            0 -1 97 -2.5069531984627247e-03</internalNodes>
          <leafValues>
            7.8355324268341064e-01 -3.1372648477554321e-01</leafValues></_>
        <_>
          <internalNodes>
            0 -1 171 7.5340802140999585e-05</internalNodes>
          <leafValues>
            5.9915906190872192e-01 -3.2525187730789185e-01</leafValues></_>
        <_>
          <internalNodes>
            0 -1 45 6.5180724486708641e-03</internalNodes>
          <leafValues>
            -2.2550678253173828e-01 8.4195417165756226e-01</leafValues></_>
        <_>
          <internalNodes>
            0 -1 122 2.6007171254605055e-04</internalNodes>
          <leafValues>
            -5.3184586763381958e-01 4.4506499171257019e-01</leafValues></_></weakClassifiers></_>
    <!-- stage 27 -->
    <_>
      <maxWeakCount>7</maxWeakCount>
      <stageThreshold>-6.1795920133590698e-02</stageThreshold>
      <weakClassifiers>
        <_>
          <internalNodes>
            0 -1 13 6.1220139265060425e-02</internalNodes>
          <leafValues>
            3.9130434393882751e-01 -5.7142859697341919e-01</leafValues></_>
        <_>
          <internalNodes>
            0 -1 27 -6.1803814023733139e-03</internalNodes>
          <leafValues>
            7.6269203424453735e-01 -2.5100737810134888e-01</leafValues></_>
        <_>
          <internalNodes>
            0 -1 92 -1.3624108396470547e-02</internalNodes>
          <leafValues>
            7.7949076890945435e-01 -2.4061602354049683e-01</leafValues></_>
        <_>
          <internalNodes>
            0 -1 12 1.5415818779729307e-04</internalNodes>
          <leafValues>
            2.6372170448303223e-01 -9.0100193023681641e-01</leafValues></_>
        <_>
          <internalNodes>
            0 -1 48 1.6465611755847931e-02</internalNodes>
          <leafValues>
            5.5562949180603027e-01 -5.4293829202651978e-01</leafValues></_>
        <_>
          <internalNodes>
            0 -1 3 -5.3169049322605133e-02</internalNodes>
          <leafValues>
            6.5498334169387817e-01 -3.7308174371719360e-01</leafValues></_>
        <_>
          <internalNodes>
            0 -1 60 -3.3140764571726322e-03</internalNodes>
          <leafValues>
            7.6223808526992798e-01 -2.6312941312789917e-01</leafValues></_></weakClassifiers></_>
    <!-- stage 28 -->
    <_>
      <maxWeakCount>5</maxWeakCount>
      <stageThreshold>8.0686509609222412e-02</stageThreshold>
      <weakClassifiers>
        <_>
          <internalNodes>
            0 -1 152 -1.9295023521408439e-03</internalNodes>
          <leafValues>
            -7.3913043737411499e-01 3.8144329190254211e-01</leafValues></_>
        <_>
          <internalNodes>
            0 -1 40 -1.5172292478382587e-02</internalNodes>
          <leafValues>
            2.9021322727203369e-01 -6.4250832796096802e-01</leafValues></_>
        <_>
          <internalNodes>
            0 -1 134 8.0430210800841451e-05</internalNodes>
          <leafValues>
            5.7392096519470215e-01 -4.0006411075592041e-01</leafValues></_>
        <_>
          <internalNodes>
            0 -1 75 -6.4499832689762115e-02</internalNodes>
          <leafValues>
            7.5590801239013672e-01 -2.8774225711822510e-01</leafValues></_>
        <_>
          <internalNodes>
            0 -1 108 -1.4811027795076370e-03</internalNodes>
          <leafValues>
            -9.4681394100189209e-01 2.8407591581344604e-01</leafValues></_></weakClassifiers></_>
    <!-- stage 29 -->
    <_>
      <maxWeakCount>6</maxWeakCount>
      <stageThreshold>-4.5596331357955933e-01</stageThreshold>
      <weakClassifiers>
        <_>
          <internalNodes>
            0 -1 175 1.0823125194292516e-04</internalNodes>
          <leafValues>
            4.4186046719551086e-01 -5.2941179275512695e-01</leafValues></_>
        <_>
          <internalNodes>
            0 -1 107 -8.3721279224846512e-05</internalNodes>
          <leafValues>
            6.3548445701599121e-01 -3.6794385313987732e-01</leafValues></_>
        <_>
          <internalNodes>
            0 -1 121 2.4918304916354828e-05</internalNodes>
          <leafValues>
            -4.4004413485527039e-01 4.9520564079284668e-01</leafValues></_>
        <_>
          <internalNodes>
            0 -1 133 -1.6342883929610252e-02</internalNodes>
          <leafValues>
            -2.3299363255500793e-01 8.9064383506774902e-01</leafValues></_>
        <_>
          <internalNodes>
            0 -1 17 2.6737344451248646e-03</internalNodes>
          <leafValues>
            -2.5436148047447205e-01 8.3636444807052612e-01</leafValues></_>
        <_>
          <internalNodes>
            0 -1 120 -1.8183600157499313e-02</internalNodes>
          <leafValues>
            3.9751932024955750e-01 -6.0439687967300415e-01</leafValues></_></weakClassifiers></_>
    <!-- stage 30 -->
    <_>
      <maxWeakCount>5</maxWeakCount>
      <stageThreshold>-4.4395098090171814e-01</stageThreshold>
      <weakClassifiers>
        <_>
          <internalNodes>
            0 -1 57 7.5074145570397377e-04</internalNodes>
          <leafValues>
            -3.0000001192092896e-01 6.3333332538604736e-01</leafValues></_>
        <_>
          <internalNodes>
            0 -1 71 6.6812259319704026e-05</internalNodes>
          <leafValues>
            3.9692604541778564e-01 -6.1508876085281372e-01</leafValues></_>
        <_>
          <internalNodes>
            0 -1 94 -1.4919490786269307e-04</internalNodes>
          <leafValues>
            6.8490648269653320e-01 -3.3967304229736328e-01</leafValues></_>
        <_>
          <internalNodes>
            0 -1 52 -8.8491335511207581e-02</internalNodes>
          <leafValues>
            -7.1901088953018188e-01 3.7109339237213135e-01</leafValues></_>
        <_>
          <internalNodes>
            0 -1 74 -2.2350306971929967e-04</internalNodes>
          <leafValues>
            -4.9361592531204224e-01 5.4823261499404907e-01</leafValues></_></weakClassifiers></_>
    <!-- stage 31 -->
    <_>
      <maxWeakCount>5</maxWeakCount>
      <stageThreshold>-5.7053864002227783e-01</stageThreshold>
      <weakClassifiers>
        <_>
          <internalNodes>
            0 -1 135 2.2901780903339386e-04</internalNodes>
          <leafValues>
            -2.7868852019309998e-01 6.2711864709854126e-01</leafValues></_>
        <_>
          <internalNodes>
            0 -1 109 -6.2159262597560883e-04</internalNodes>
          <leafValues>
            -5.6131535768508911e-01 3.8178440928459167e-01</leafValues></_>
        <_>
          <internalNodes>
            0 -1 20 -2.3660592734813690e-02</internalNodes>
          <leafValues>
            8.6633509397506714e-01 -2.8854331374168396e-01</leafValues></_>
        <_>
          <internalNodes>
            0 -1 151 -3.0438262037932873e-03</internalNodes>
          <leafValues>
            -7.8828865289688110e-01 3.2231679558753967e-01</leafValues></_>
        <_>
          <internalNodes>
            0 -1 169 -3.8124731509014964e-04</internalNodes>
          <leafValues>
            -9.5349156856536865e-01 2.3569180071353912e-01</leafValues></_></weakClassifiers></_>
    <!-- stage 32 -->
    <_>
      <maxWeakCount>5</maxWeakCount>
      <stageThreshold>-3.6124134063720703e-01</stageThreshold>
      <weakClassifiers>
        <_>
          <internalNodes>
            0 -1 101 -1.8223561346530914e-02</internalNodes>
          <leafValues>
            -8.8235294818878174e-01 3.3980581164360046e-01</leafValues></_>
        <_>
          <internalNodes>
            0 -1 117 1.7578051192685962e-03</internalNodes>
          <leafValues>
            -2.7624249458312988e-01 8.5787934064865112e-01</leafValues></_>
        <_>
          <internalNodes>
            0 -1 104 -8.4080267697572708e-05</internalNodes>
          <leafValues>
            5.5179345607757568e-01 -3.6330130696296692e-01</leafValues></_>
        <_>
          <internalNodes>
            0 -1 88 -1.8655166786629707e-04</internalNodes>
          <leafValues>
            -5.5222314596176147e-01 4.8625513911247253e-01</leafValues></_>
        <_>
          <internalNodes>
            0 -1 28 -2.1638123318552971e-02</internalNodes>
          <leafValues>
            7.2742760181427002e-01 -3.3633807301521301e-01</leafValues></_></weakClassifiers></_>
    <!-- stage 33 -->
    <_>
      <maxWeakCount>7</maxWeakCount>
      <stageThreshold>-4.0966936945915222e-01</stageThreshold>
      <weakClassifiers>
        <_>
          <internalNodes>
            0 -1 58 8.6879834998399019e-04</internalNodes>
          <leafValues>
            -2.2222222387790680e-01 7.5000000000000000e-01</leafValues></_>
        <_>
          <internalNodes>
            0 -1 68 -7.8370496630668640e-02</internalNodes>
          <leafValues>
            -2.2259825468063354e-01 8.8114041090011597e-01</leafValues></_>
        <_>
          <internalNodes>
            0 -1 83 -4.0750265121459961e-02</internalNodes>
          <leafValues>
            6.4373332262039185e-01 -3.9456677436828613e-01</leafValues></_>
        <_>
          <internalNodes>
            0 -1 156 2.4599502794444561e-03</internalNodes>
          <leafValues>
            -1.9925583899021149e-01 8.5439157485961914e-01</leafValues></_>
        <_>
          <internalNodes>
            0 -1 112 4.5662727206945419e-03</internalNodes>
          <leafValues>
            -2.9845401644706726e-01 6.3278913497924805e-01</leafValues></_>
        <_>
          <internalNodes>
            0 -1 119 -1.8805696163326502e-03</internalNodes>
          <leafValues>
            7.1631324291229248e-01 -3.3675330877304077e-01</leafValues></_>
        <_>
          <internalNodes>
            0 -1 19 -1.5176935493946075e-01</internalNodes>
          <leafValues>
            -8.2131952047348022e-01 3.3293789625167847e-01</leafValues></_></weakClassifiers></_>
    <!-- stage 34 -->
    <_>
      <maxWeakCount>7</maxWeakCount>
      <stageThreshold>-2.6401743292808533e-01</stageThreshold>
      <weakClassifiers>
        <_>
          <internalNodes>
            0 -1 56 -9.8871780210174620e-05</internalNodes>
          <leafValues>
            -4.6341463923454285e-01 4.9367088079452515e-01</leafValues></_>
        <_>
          <internalNodes>
            0 -1 25 4.6968255192041397e-03</internalNodes>
          <leafValues>
            -2.1964322030544281e-01 8.8825142383575439e-01</leafValues></_>
        <_>
          <internalNodes>
            0 -1 18 1.2455483374651521e-04</internalNodes>
          <leafValues>
            5.0986993312835693e-01 -4.7028660774230957e-01</leafValues></_>
        <_>
          <internalNodes>
            0 -1 154 -6.0816826589871198e-05</internalNodes>
          <leafValues>
            -6.8828135728836060e-01 4.3513721227645874e-01</leafValues></_>
        <_>
          <internalNodes>
            0 -1 147 1.8353547784499824e-04</internalNodes>
          <leafValues>
            -4.7796335816383362e-01 5.1820516586303711e-01</leafValues></_>
        <_>
          <internalNodes>
            0 -1 114 4.4281966984272003e-04</internalNodes>
          <leafValues>
            4.6035155653953552e-01 -6.3020431995391846e-01</leafValues></_>
        <_>
          <internalNodes>
            0 -1 131 -2.3403600789606571e-04</internalNodes>
          <leafValues>
            -3.5803386569023132e-01 7.3533362150192261e-01</leafValues></_></weakClassifiers></_>
    <!-- stage 35 -->
    <_>
      <maxWeakCount>7</maxWeakCount>
      <stageThreshold>-1.4587161131203175e-02</stageThreshold>
      <weakClassifiers>
        <_>
          <internalNodes>
            0 -1 132 -1.2035492109134793e-03</internalNodes>
          <leafValues>
            -6.6666668653488159e-01 3.7500000000000000e-01</leafValues></_>
        <_>
          <internalNodes>
            0 -1 66 -1.6633713245391846e-01</internalNodes>
          <leafValues>
            -3.1480243802070618e-01 7.4193674325942993e-01</leafValues></_>
        <_>
          <internalNodes>
            0 -1 53 -1.6986485570669174e-04</internalNodes>
          <leafValues>
            -3.1981506943702698e-01 6.7992615699768066e-01</leafValues></_>
        <_>
          <internalNodes>
            0 -1 158 9.0896101028192788e-05</internalNodes>
          <leafValues>
            3.1663835048675537e-01 -7.2079473733901978e-01</leafValues></_>
        <_>
          <internalNodes>
            0 -1 34 -5.3952113375999033e-05</internalNodes>
          <leafValues>
            -4.8454239964485168e-01 4.8098319768905640e-01</leafValues></_>
        <_>
          <internalNodes>
            0 -1 110 4.8416960053145885e-03</internalNodes>
          <leafValues>
            -3.0900338292121887e-01 8.5614919662475586e-01</leafValues></_>
        <_>
          <internalNodes>
            0 -1 54 -3.4838765859603882e-03</internalNodes>
          <leafValues>
            8.1973320245742798e-01 -2.4358782172203064e-01</leafValues></_></weakClassifiers></_></stages>
  <features>
    <_>
      <rects>
        <_>
          0 0 1 4 -1.</_>
        <_>
          0 2 1 2 2.</_></rects>
      <tilted>0</tilted></_>
    <_>
      <rects>
        <_>
          0 0 4 2 -1.</_>
        <_>
          2 0 2 2 2.</_></rects>
      <tilted>0</tilted></_>
    <_>
      <rects>
        <_>
          0 0 24 15 -1.</_>
        <_>
          12 0 12 15 2.</_></rects>
      <tilted>0</tilted></_>
    <_>
      <rects>
        <_>
          0 0 18 6 -1.</_>
        <_>
          0 3 18 3 2.</_></rects>
      <tilted>0</tilted></_>
    <_>
      <rects>
        <_>
          0 0 24 24 -1.</_>
        <_>
          0 8 24 8 2.</_></rects>
      <tilted>0</tilted></_>
    <_>
      <rects>
        <_>
          0 1 10 6 -1.</_>
        <_>
          0 1 5 3 2.</_>
        <_>
          5 4 5 3 2.</_></rects>
      <tilted>0</tilted></_>
    <_>
      <rects>
        <_>
          0 1 10 4 -1.</_>
        <_>
          0 3 10 2 2.</_></rects>
      <tilted>0</tilted></_>
    <_>
      <rects>
        <_>
          0 1 15 2 -1.</_>
        <_>
          0 2 15 1 2.</_></rects>
      <tilted>0</tilted></_>
    <_>
      <rects>
        <_>
          0 2 2 2 -1.</_>
        <_>
          0 2 1 1 2.</_>
        <_>
          1 3 1 1 2.</_></rects>
      <tilted>0</tilted></_>
    <_>
      <rects>
        <_>
          0 3 1 2 -1.</_>
        <_>
          0 4 1 1 2.</_></rects>
      <tilted>0</tilted></_>
    <_>
      <rects>
        <_>
          0 3 2 2 -1.</_>
        <_>
          0 4 2 1 2.</_></rects>
      <tilted>0</tilted></_>
    <_>
      <rects>
        <_>
          0 4 6 3 -1.</_>
        <_>
          0 5 6 1 2.</_></rects>
      <tilted>0</tilted></_>
    <_>
      <rects>
        <_>
          0 7 1 2 -1.</_>
        <_>
          0 8 1 1 2.</_></rects>
      <tilted>0</tilted></_>
    <_>
      <rects>
        <_>
          0 8 22 16 -1.</_>
        <_>
          0 8 11 8 2.</_>
        <_>
          11 16 11 8 2.</_></rects>
      <tilted>0</tilted></_>
    <_>
      <rects>
        <_>
          0 9 2 15 -1.</_>
        <_>
          0 14 2 5 2.</_></rects>
      <tilted>0</tilted></_>
    <_>
      <rects>
        <_>
          0 9 4 8 -1.</_>
        <_>
          2 9 2 8 2.</_></rects>
      <tilted>0</tilted></_>
    <_>
      <rects>
        <_>
          0 10 2 1 -1.</_>
        <_>
          1 10 1 1 2.</_></rects>
      <tilted>0</tilted></_>
    <_>
      <rects>
        <_>
          0 13 14 2 -1.</_>
        <_>
          0 14 14 1 2.</_></rects>
      <tilted>0</tilted></_>
    <_>
      <rects>
        <_>
          0 15 3 6 -1.</_>
        <_>
          0 18 3 3 2.</_></rects>
      <tilted>0</tilted></_>
    <_>
      <rects>
        <_>
          0 16 20 8 -1.</_>
        <_>
          10 16 10 8 2.</_></rects>
      <tilted>0</tilted></_>
    <_>
      <rects>
        <_>
          0 18 22 6 -1.</_>
        <_>
          0 21 22 3 2.</_></rects>
      <tilted>0</tilted></_>
    <_>
      <rects>
        <_>
          0 20 10 4 -1.</_>
        <_>
          5 20 5 4 2.</_></rects>
      <tilted>0</tilted></_>
    <_>
      <rects>
        <_>
          0 20 21 4 -1.</_>
        <_>
          0 22 21 2 2.</_></rects>
      <tilted>0</tilted></_>
    <_>
      <rects>
        <_>
          0 21 20 2 -1.</_>
        <_>
          0 21 10 1 2.</_>
        <_>
          10 22 10 1 2.</_></rects>
      <tilted>0</tilted></_>
    <_>
      <rects>
        <_>
          1 0 2 1 -1.</_>
        <_>
          2 0 1 1 2.</_></rects>
      <tilted>0</tilted></_>
    <_>
      <rects>
        <_>
          1 0 10 4 -1.</_>
        <_>
          1 0 5 2 2.</_>
        <_>
          6 2 5 2 2.</_></rects>
      <tilted>0</tilted></_>
    <_>
      <rects>
        <_>
          1 0 12 4 -1.</_>
        <_>
          1 0 6 2 2.</_>
        <_>
          7 2 6 2 2.</_></rects>
      <tilted>0</tilted></_>
    <_>
      <rects>
        <_>
          1 0 16 2 -1.</_>
        <_>
          1 1 16 1 2.</_></rects>
      <tilted>0</tilted></_>
    <_>
      <rects>
        <_>
          1 7 2 6 -1.</_>
        <_>
          1 9 2 2 2.</_></rects>
      <tilted>0</tilted></_>
    <_>
      <rects>
        <_>
          1 7 14 4 -1.</_>
        <_>
          1 7 7 2 2.</_>
        <_>
          8 9 7 2 2.</_></rects>
      <tilted>0</tilted></_>
    <_>
      <rects>
        <_>
          1 9 6 3 -1.</_>
        <_>
          4 9 3 3 2.</_></rects>
      <tilted>0</tilted></_>
    <_>
      <rects>
        <_>
          1 12 6 6 -1.</_>
        <_>
          4 12 3 6 2.</_></rects>
      <tilted>0</tilted></_>
    <_>
      <rects>
        <_>
          1 12 8 5 -1.</_>
        <_>
          5 12 4 5 2.</_></rects>
      <tilted>0</tilted></_>
    <_>
      <rects>
        <_>
          1 16 8 2 -1.</_>
        <_>
          1 17 8 1 2.</_></rects>
      <tilted>0</tilted></_>
    <_>
      <rects>
        <_>
          1 17 3 2 -1.</_>
        <_>
          1 18 3 1 2.</_></rects>
      <tilted>0</tilted></_>
    <_>
      <rects>
        <_>
          1 17 5 4 -1.</_>
        <_>
          1 19 5 2 2.</_></rects>
      <tilted>0</tilted></_>
    <_>
      <rects>
        <_>
          1 18 2 4 -1.</_>
        <_>
          1 18 1 2 2.</_>
        <_>
          2 20 1 2 2.</_></rects>
      <tilted>0</tilted></_>
    <_>
      <rects>
        <_>
          2 0 2 2 -1.</_>
        <_>
          2 0 1 1 2.</_>
        <_>
          3 1 1 1 2.</_></rects>
      <tilted>0</tilted></_>
    <_>
      <rects>
        <_>
          2 0 4 2 -1.</_>
        <_>
          2 1 4 1 2.</_></rects>
      <tilted>0</tilted></_>
    <_>
      <rects>
        <_>
          2 1 1 2 -1.</_>
        <_>
          2 2 1 1 2.</_></rects>
      <tilted>0</tilted></_>
    <_>
      <rects>
        <_>
          2 3 15 1 -1.</_>
        <_>
          7 3 5 1 2.</_></rects>
      <tilted>0</tilted></_>
    <_>
      <rects>
        <_>
          2 5 4 8 -1.</_>
        <_>
          4 5 2 8 2.</_></rects>
      <tilted>0</tilted></_>
    <_>
      <rects>
        <_>
          2 7 6 4 -1.</_>
        <_>
          2 7 3 2 2.</_>
        <_>
          5 9 3 2 2.</_></rects>
      <tilted>0</tilted></_>
    <_>
      <rects>
        <_>
          2 8 13 3 -1.</_>
        <_>
          2 9 13 1 2.</_></rects>
      <tilted>0</tilted></_>
    <_>
      <rects>
        <_>
          2 10 6 6 -1.</_>
        <_>
          2 12 6 2 2.</_></rects>
      <tilted>0</tilted></_>
    <_>
      <rects>
        <_>
          2 11 14 4 -1.</_>
        <_>
          2 11 7 2 2.</_>
        <_>
          9 13 7 2 2.</_></rects>
      <tilted>0</tilted></_>
    <_>
      <rects>
        <_>
          2 20 2 3 -1.</_>
        <_>
          3 20 1 3 2.</_></rects>
      <tilted>0</tilted></_>
    <_>
      <rects>
        <_>
          3 0 1 2 -1.</_>
        <_>
          3 1 1 1 2.</_></rects>
      <tilted>0</tilted></_>
    <_>
      <rects>
        <_>
          3 1 6 22 -1.</_>
        <_>
          3 1 3 11 2.</_>
        <_>
          6 12 3 11 2.</_></rects>
      <tilted>0</tilted></_>
    <_>
      <rects>
        <_>
          3 5 6 2 -1.</_>
        <_>
          3 5 3 1 2.</_>
        <_>
          6 6 3 1 2.</_></rects>
      <tilted>0</tilted></_>
    <_>
      <rects>
        <_>
          3 8 2 2 -1.</_>
        <_>
          3 9 2 1 2.</_></rects>
      <tilted>0</tilted></_>
    <_>
      <rects>
        <_>
          3 11 4 12 -1.</_>
        <_>
          3 11 2 6 2.</_>
        <_>
          5 17 2 6 2.</_></rects>
      <tilted>0</tilted></_>
    <_>
      <rects>
        <_>
          3 13 9 7 -1.</_>
        <_>
          6 13 3 7 2.</_></rects>
      <tilted>0</tilted></_>
    <_>
      <rects>
        <_>
          3 14 4 9 -1.</_>
        <_>
          5 14 2 9 2.</_></rects>
      <tilted>0</tilted></_>
    <_>
      <rects>
        <_>
          3 15 4 4 -1.</_>
        <_>
          3 17 4 2 2.</_></rects>
      <tilted>0</tilted></_>
    <_>
      <rects>
        <_>
          3 19 6 3 -1.</_>
        <_>
          3 20 6 1 2.</_></rects>
      <tilted>0</tilted></_>
    <_>
      <rects>
        <_>
          4 0 1 2 -1.</_>
        <_>
          4 1 1 1 2.</_></rects>
      <tilted>0</tilted></_>
    <_>
      <rects>
        <_>
          4 0 10 4 -1.</_>
        <_>
          4 0 5 2 2.</_>
        <_>
          9 2 5 2 2.</_></rects>
      <tilted>0</tilted></_>
    <_>
      <rects>
        <_>
          4 1 10 2 -1.</_>
        <_>
          4 1 5 1 2.</_>
        <_>
          9 2 5 1 2.</_></rects>
      <tilted>0</tilted></_>
    <_>
      <rects>
        <_>
          4 5 4 10 -1.</_>
        <_>
          6 5 2 10 2.</_></rects>
      <tilted>0</tilted></_>
    <_>
      <rects>
        <_>
          4 6 2 9 -1.</_>
        <_>
          5 6 1 9 2.</_></rects>
      <tilted>0</tilted></_>
    <_>
      <rects>
        <_>
          4 6 16 16 -1.</_>
        <_>
          4 6 8 8 2.</_>
        <_>
          12 14 8 8 2.</_></rects>
      <tilted>0</tilted></_>
    <_>
      <rects>
        <_>
          4 12 5 9 -1.</_>
        <_>
          4 15 5 3 2.</_></rects>
      <tilted>0</tilted></_>
    <_>
      <rects>
        <_>
          5 0 1 18 -1.</_>
        <_>
          5 9 1 9 2.</_></rects>
      <tilted>0</tilted></_>
    <_>
      <rects>
        <_>
          5 0 12 8 -1.</_>
        <_>
          5 4 12 4 2.</_></rects>
      <tilted>0</tilted></_>
    <_>
      <rects>
        <_>
          5 1 8 2 -1.</_>
        <_>
          5 1 4 1 2.</_>
        <_>
          9 2 4 1 2.</_></rects>
      <tilted>0</tilted></_>
    <_>
      <rects>
        <_>
          5 3 9 21 -1.</_>
        <_>
          8 3 3 21 2.</_></rects>
      <tilted>0</tilted></_>
    <_>
      <rects>
        <_>
          5 4 6 4 -1.</_>
        <_>
          5 4 3 2 2.</_>
        <_>
          8 6 3 2 2.</_></rects>
      <tilted>0</tilted></_>
    <_>
      <rects>
        <_>
          5 6 9 13 -1.</_>
        <_>
          8 6 3 13 2.</_></rects>
      <tilted>0</tilted></_>
    <_>
      <rects>
        <_>
          5 10 16 11 -1.</_>
        <_>
          13 10 8 11 2.</_></rects>
      <tilted>0</tilted></_>
    <_>
      <rects>
        <_>
          5 15 6 2 -1.</_>
        <_>
          5 15 3 1 2.</_>
        <_>
          8 16 3 1 2.</_></rects>
      <tilted>0</tilted></_>
    <_>
      <rects>
        <_>
          6 0 2 1 -1.</_>
        <_>
          7 0 1 1 2.</_></rects>
      <tilted>0</tilted></_>
    <_>
      <rects>
        <_>
          6 0 3 1 -1.</_>
        <_>
          7 0 1 1 2.</_></rects>
      <tilted>0</tilted></_>
    <_>
      <rects>
        <_>
          6 0 2 12 -1.</_>
        <_>
          6 0 1 6 2.</_>
        <_>
          7 6 1 6 2.</_></rects>
      <tilted>0</tilted></_>
    <_>
      <rects>
        <_>
          6 5 3 2 -1.</_>
        <_>
          6 6 3 1 2.</_></rects>
      <tilted>0</tilted></_>
    <_>
      <rects>
        <_>
          6 8 11 16 -1.</_>
        <_>
          6 16 11 8 2.</_></rects>
      <tilted>0</tilted></_>
    <_>
      <rects>
        <_>
          6 13 2 6 -1.</_>
        <_>
          6 13 1 3 2.</_>
        <_>
          7 16 1 3 2.</_></rects>
      <tilted>0</tilted></_>
    <_>
      <rects>
        <_>
          6 17 2 6 -1.</_>
        <_>
          6 17 1 3 2.</_>
        <_>
          7 20 1 3 2.</_></rects>
      <tilted>0</tilted></_>
    <_>
      <rects>
        <_>
          7 0 2 1 -1.</_>
        <_>
          8 0 1 1 2.</_></rects>
      <tilted>0</tilted></_>
    <_>
      <rects>
        <_>
          7 2 2 2 -1.</_>
        <_>
          8 2 1 2 2.</_></rects>
      <tilted>0</tilted></_>
    <_>
      <rects>
        <_>
          7 11 2 1 -1.</_>
        <_>
          8 11 1 1 2.</_></rects>
      <tilted>0</tilted></_>
    <_>
      <rects>
        <_>
          7 12 11 2 -1.</_>
        <_>
          7 13 11 1 2.</_></rects>
      <tilted>0</tilted></_>
    <_>
      <rects>
        <_>
          7 15 17 3 -1.</_>
        <_>
          7 16 17 1 2.</_></rects>
      <tilted>0</tilted></_>
    <_>
      <rects>
        <_>
          8 1 2 15 -1.</_>
        <_>
          8 6 2 5 2.</_></rects>
      <tilted>0</tilted></_>
    <_>
      <rects>
        <_>
          8 3 13 4 -1.</_>
        <_>
          8 5 13 2 2.</_></rects>
      <tilted>0</tilted></_>
    <_>
      <rects>
        <_>
          8 4 2 6 -1.</_>
        <_>
          8 4 1 3 2.</_>
        <_>
          9 7 1 3 2.</_></rects>
      <tilted>0</tilted></_>
    <_>
      <rects>
        <_>
          8 11 6 2 -1.</_>
        <_>
          8 11 3 1 2.</_>
        <_>
          11 12 3 1 2.</_></rects>
      <tilted>0</tilted></_>
    <_>
      <rects>
        <_>
          8 15 6 1 -1.</_>
        <_>
          10 15 2 1 2.</_></rects>
      <tilted>0</tilted></_>
    <_>
      <rects>
        <_>
          8 16 2 4 -1.</_>
        <_>
          8 16 1 2 2.</_>
        <_>
          9 18 1 2 2.</_></rects>
      <tilted>0</tilted></_>
    <_>
      <rects>
        <_>
          8 20 6 4 -1.</_>
        <_>
          10 20 2 4 2.</_></rects>
      <tilted>0</tilted></_>
    <_>
      <rects>
        <_>
          9 0 7 3 -1.</_>
        <_>
          9 1 7 1 2.</_></rects>
      <tilted>0</tilted></_>
    <_>
      <rects>
        <_>
          9 2 2 4 -1.</_>
        <_>
          9 2 1 2 2.</_>
        <_>
          10 4 1 2 2.</_></rects>
      <tilted>0</tilted></_>
    <_>
      <rects>
        <_>
          9 5 1 9 -1.</_>
        <_>
          9 8 1 3 2.</_></rects>
      <tilted>0</tilted></_>
    <_>
      <rects>
        <_>
          9 8 4 12 -1.</_>
        <_>
          9 8 2 6 2.</_>
        <_>
          11 14 2 6 2.</_></rects>
      <tilted>0</tilted></_>
    <_>
      <rects>
        <_>
          9 9 6 1 -1.</_>
        <_>
          12 9 3 1 2.</_></rects>
      <tilted>0</tilted></_>
    <_>
      <rects>
        <_>
          9 12 8 4 -1.</_>
        <_>
          9 14 8 2 2.</_></rects>
      <tilted>0</tilted></_>
    <_>
      <rects>
        <_>
          9 16 6 4 -1.</_>
        <_>
          9 16 3 2 2.</_>
        <_>
          12 18 3 2 2.</_></rects>
      <tilted>0</tilted></_>
    <_>
      <rects>
        <_>
          9 20 6 2 -1.</_>
        <_>
          12 20 3 2 2.</_></rects>
      <tilted>0</tilted></_>
    <_>
      <rects>
        <_>
          9 20 14 2 -1.</_>
        <_>
          9 21 14 1 2.</_></rects>
      <tilted>0</tilted></_>
    <_>
      <rects>
        <_>
          10 0 6 24 -1.</_>
        <_>
          10 0 3 12 2.</_>
        <_>
          13 12 3 12 2.</_></rects>
      <tilted>0</tilted></_>
    <_>
      <rects>
        <_>
          10 3 2 6 -1.</_>
        <_>
          11 3 1 6 2.</_></rects>
      <tilted>0</tilted></_>
    <_>
      <rects>
        <_>
          10 4 4 16 -1.</_>
        <_>
          10 4 2 8 2.</_>
        <_>
          12 12 2 8 2.</_></rects>
      <tilted>0</tilted></_>
    <_>
      <rects>
        <_>
          10 7 3 1 -1.</_>
        <_>
          11 7 1 1 2.</_></rects>
      <tilted>0</tilted></_>
    <_>
      <rects>
        <_>
          10 18 6 2 -1.</_>
        <_>
          10 18 3 1 2.</_>
        <_>
          13 19 3 1 2.</_></rects>
      <tilted>0</tilted></_>
    <_>
      <rects>
        <_>
          11 1 8 2 -1.</_>
        <_>
          11 1 4 1 2.</_>
        <_>
          15 2 4 1 2.</_></rects>
      <tilted>0</tilted></_>
    <_>
      <rects>
        <_>
          11 5 6 3 -1.</_>
        <_>
          11 6 6 1 2.</_></rects>
      <tilted>0</tilted></_>
    <_>
      <rects>
        <_>
          11 6 5 9 -1.</_>
        <_>
          11 9 5 3 2.</_></rects>
      <tilted>0</tilted></_>
    <_>
      <rects>
        <_>
          11 7 4 1 -1.</_>
        <_>
          13 7 2 1 2.</_></rects>
      <tilted>0</tilted></_>
    <_>
      <rects>
        <_>
          11 9 2 2 -1.</_>
        <_>
          12 9 1 2 2.</_></rects>
      <tilted>0</tilted></_>
    <_>
      <rects>
        <_>
          11 9 4 2 -1.</_>
        <_>
          11 9 2 1 2.</_>
        <_>
          13 10 2 1 2.</_></rects>
      <tilted>0</tilted></_>
    <_>
      <rects>
        <_>
          11 20 8 4 -1.</_>
        <_>
          11 20 4 2 2.</_>
        <_>
          15 22 4 2 2.</_></rects>
      <tilted>0</tilted></_>
    <_>
      <rects>
        <_>
          12 1 11 10 -1.</_>
        <_>
          12 6 11 5 2.</_></rects>
      <tilted>0</tilted></_>
    <_>
      <rects>
        <_>
          12 2 8 1 -1.</_>
        <_>
          16 2 4 1 2.</_></rects>
      <tilted>0</tilted></_>
    <_>
      <rects>
        <_>
          12 2 12 4 -1.</_>
        <_>
          12 4 12 2 2.</_></rects>
      <tilted>0</tilted></_>
    <_>
      <rects>
        <_>
          12 3 2 5 -1.</_>
        <_>
          13 3 1 5 2.</_></rects>
      <tilted>0</tilted></_>
    <_>
      <rects>
        <_>
          12 4 2 6 -1.</_>
        <_>
          13 4 1 6 2.</_></rects>
      <tilted>0</tilted></_>
    <_>
      <rects>
        <_>
          12 12 6 8 -1.</_>
        <_>
          12 12 3 4 2.</_>
        <_>
          15 16 3 4 2.</_></rects>
      <tilted>0</tilted></_>
    <_>
      <rects>
        <_>
          12 15 1 6 -1.</_>
        <_>
          12 18 1 3 2.</_></rects>
      <tilted>0</tilted></_>
    <_>
      <rects>
        <_>
          12 19 2 5 -1.</_>
        <_>
          13 19 1 5 2.</_></rects>
      <tilted>0</tilted></_>
    <_>
      <rects>
        <_>
          13 1 8 3 -1.</_>
        <_>
          17 1 4 3 2.</_></rects>
      <tilted>0</tilted></_>
    <_>
      <rects>
        <_>
          13 2 3 6 -1.</_>
        <_>
          13 4 3 2 2.</_></rects>
      <tilted>0</tilted></_>
    <_>
      <rects>
        <_>
          13 3 4 4 -1.</_>
        <_>
          13 3 2 2 2.</_>
        <_>
          15 5 2 2 2.</_></rects>
      <tilted>0</tilted></_>
    <_>
      <rects>
        <_>
          13 6 6 2 -1.</_>
        <_>
          16 6 3 2 2.</_></rects>
      <tilted>0</tilted></_>
    <_>
      <rects>
        <_>
          13 19 2 2 -1.</_>
        <_>
          14 19 1 2 2.</_></rects>
      <tilted>0</tilted></_>
    <_>
      <rects>
        <_>
          13 20 4 4 -1.</_>
        <_>
          15 20 2 4 2.</_></rects>
      <tilted>0</tilted></_>
    <_>
      <rects>
        <_>
          14 0 2 1 -1.</_>
        <_>
          15 0 1 1 2.</_></rects>
      <tilted>0</tilted></_>
    <_>
      <rects>
        <_>
          14 0 10 4 -1.</_>
        <_>
          14 0 5 2 2.</_>
        <_>
          19 2 5 2 2.</_></rects>
      <tilted>0</tilted></_>
    <_>
      <rects>
        <_>
          14 2 8 2 -1.</_>
        <_>
          14 2 4 1 2.</_>
        <_>
          18 3 4 1 2.</_></rects>
      <tilted>0</tilted></_>
    <_>
      <rects>
        <_>
          14 3 6 4 -1.</_>
        <_>
          14 3 3 2 2.</_>
        <_>
          17 5 3 2 2.</_></rects>
      <tilted>0</tilted></_>
    <_>
      <rects>
        <_>
          14 7 2 12 -1.</_>
        <_>
          15 7 1 12 2.</_></rects>
      <tilted>0</tilted></_>
    <_>
      <rects>
        <_>
          14 16 8 4 -1.</_>
        <_>
          14 18 8 2 2.</_></rects>
      <tilted>0</tilted></_>
    <_>
      <rects>
        <_>
          15 0 2 16 -1.</_>
        <_>
          15 8 2 8 2.</_></rects>
      <tilted>0</tilted></_>
    <_>
      <rects>
        <_>
          15 5 2 4 -1.</_>
        <_>
          15 5 1 2 2.</_>
        <_>
          16 7 1 2 2.</_></rects>
      <tilted>0</tilted></_>
    <_>
      <rects>
        <_>
          15 10 3 9 -1.</_>
        <_>
          15 13 3 3 2.</_></rects>
      <tilted>0</tilted></_>
    <_>
      <rects>
        <_>
          15 11 2 2 -1.</_>
        <_>
          16 11 1 2 2.</_></rects>
      <tilted>0</tilted></_>
    <_>
      <rects>
        <_>
          15 14 6 4 -1.</_>
        <_>
          15 14 3 2 2.</_>
        <_>
          18 16 3 2 2.</_></rects>
      <tilted>0</tilted></_>
    <_>
      <rects>
        <_>
          15 18 2 2 -1.</_>
        <_>
          16 18 1 2 2.</_></rects>
      <tilted>0</tilted></_>
    <_>
      <rects>
        <_>
          16 0 4 6 -1.</_>
        <_>
          16 0 2 3 2.</_>
        <_>
          18 3 2 3 2.</_></rects>
      <tilted>0</tilted></_>
    <_>
      <rects>
        <_>
          16 9 1 2 -1.</_>
        <_>
          16 10 1 1 2.</_></rects>
      <tilted>0</tilted></_>
    <_>
      <rects>
        <_>
          16 10 5 9 -1.</_>
        <_>
          16 13 5 3 2.</_></rects>
      <tilted>0</tilted></_>
    <_>
      <rects>
        <_>
          16 14 6 10 -1.</_>
        <_>
          16 19 6 5 2.</_></rects>
      <tilted>0</tilted></_>
    <_>
      <rects>
        <_>
          16 17 2 4 -1.</_>
        <_>
          16 17 1 2 2.</_>
        <_>
          17 19 1 2 2.</_></rects>
      <tilted>0</tilted></_>
    <_>
      <rects>
        <_>
          16 17 8 2 -1.</_>
        <_>
          16 17 4 1 2.</_>
        <_>
          20 18 4 1 2.</_></rects>
      <tilted>0</tilted></_>
    <_>
      <rects>
        <_>
          16 19 6 3 -1.</_>
        <_>
          19 19 3 3 2.</_></rects>
      <tilted>0</tilted></_>
    <_>
      <rects>
        <_>
          17 2 4 6 -1.</_>
        <_>
          17 2 2 3 2.</_>
        <_>
          19 5 2 3 2.</_></rects>
      <tilted>0</tilted></_>
    <_>
      <rects>
        <_>
          17 4 6 12 -1.</_>
        <_>
          17 10 6 6 2.</_></rects>
      <tilted>0</tilted></_>
    <_>
      <rects>
        <_>
          17 10 6 3 -1.</_>
        <_>
          17 11 6 1 2.</_></rects>
      <tilted>0</tilted></_>
    <_>
      <rects>
        <_>
          17 14 2 4 -1.</_>
        <_>
          17 14 1 2 2.</_>
        <_>
          18 16 1 2 2.</_></rects>
      <tilted>0</tilted></_>
    <_>
      <rects>
        <_>
          17 23 4 1 -1.</_>
        <_>
          19 23 2 1 2.</_></rects>
      <tilted>0</tilted></_>
    <_>
      <rects>
        <_>
          18 5 4 2 -1.</_>
        <_>
          18 6 4 1 2.</_></rects>
      <tilted>0</tilted></_>
    <_>
      <rects>
        <_>
          18 10 4 4 -1.</_>
        <_>
          20 10 2 4 2.</_></rects>
      <tilted>0</tilted></_>
    <_>
      <rects>
        <_>
          18 10 3 4 -1.</_>
        <_>
          18 12 3 2 2.</_></rects>
      <tilted>0</tilted></_>
    <_>
      <rects>
        <_>
          18 10 4 2 -1.</_>
        <_>
          18 11 4 1 2.</_></rects>
      <tilted>0</tilted></_>
    <_>
      <rects>
        <_>
          18 14 4 8 -1.</_>
        <_>
          18 14 2 4 2.</_>
        <_>
          20 18 2 4 2.</_></rects>
      <tilted>0</tilted></_>
    <_>
      <rects>
        <_>
          19 0 2 2 -1.</_>
        <_>
          19 0 1 1 2.</_>
        <_>
          20 1 1 1 2.</_></rects>
      <tilted>0</tilted></_>
    <_>
      <rects>
        <_>
          19 5 4 11 -1.</_>
        <_>
          21 5 2 11 2.</_></rects>
      <tilted>0</tilted></_>
    <_>
      <rects>
        <_>
          19 8 2 10 -1.</_>
        <_>
          19 8 1 5 2.</_>
        <_>
          20 13 1 5 2.</_></rects>
      <tilted>0</tilted></_>
    <_>
      <rects>
        <_>
          19 12 4 4 -1.</_>
        <_>
          21 12 2 4 2.</_></rects>
      <tilted>0</tilted></_>
    <_>
      <rects>
        <_>
          20 0 2 2 -1.</_>
        <_>
          20 0 1 1 2.</_>
        <_>
          21 1 1 1 2.</_></rects>
      <tilted>0</tilted></_>
    <_>
      <rects>
        <_>
          20 0 4 2 -1.</_>
        <_>
          22 0 2 2 2.</_></rects>
      <tilted>0</tilted></_>
    <_>
      <rects>
        <_>
          20 0 3 2 -1.</_>
        <_>
          20 1 3 1 2.</_></rects>
      <tilted>0</tilted></_>
    <_>
      <rects>
        <_>
          20 1 2 2 -1.</_>
        <_>
          20 2 2 1 2.</_></rects>
      <tilted>0</tilted></_>
    <_>
      <rects>
        <_>
          20 2 2 1 -1.</_>
        <_>
          21 2 1 1 2.</_></rects>
      <tilted>0</tilted></_>
    <_>
      <rects>
        <_>
          20 2 2 2 -1.</_>
        <_>
          20 2 1 1 2.</_>
        <_>
          21 3 1 1 2.</_></rects>
      <tilted>0</tilted></_>
    <_>
      <rects>
        <_>
          20 14 2 10 -1.</_>
        <_>
          21 14 1 10 2.</_></rects>
      <tilted>0</tilted></_>
    <_>
      <rects>
        <_>
          20 16 4 2 -1.</_>
        <_>
          22 16 2 2 2.</_></rects>
      <tilted>0</tilted></_>
    <_>
      <rects>
        <_>
          21 1 3 4 -1.</_>
        <_>
          21 3 3 2 2.</_></rects>
      <tilted>0</tilted></_>
    <_>
      <rects>
        <_>
          22 0 2 4 -1.</_>
        <_>
          23 0 1 4 2.</_></rects>
      <tilted>0</tilted></_>
    <_>
      <rects>
        <_>
          22 1 2 21 -1.</_>
        <_>
          22 8 2 7 2.</_></rects>
      <tilted>0</tilted></_>
    <_>
      <rects>
        <_>
          22 4 1 2 -1.</_>
        <_>
          22 5 1 1 2.</_></rects>
      <tilted>0</tilted></_>
    <_>
      <rects>
        <_>
          22 10 1 6 -1.</_>
        <_>
          22 13 1 3 2.</_></rects>
      <tilted>0</tilted></_>
    <_>
      <rects>
        <_>
          22 14 2 8 -1.</_>
        <_>
          23 14 1 8 2.</_></rects>
      <tilted>0</tilted></_>
    <_>
      <rects>
        <_>
          22 16 1 4 -1.</_>
        <_>
          22 18 1 2 2.</_></rects>
      <tilted>0</tilted></_>
    <_>
      <rects>
        <_>
          23 1 1 4 -1.</_>
        <_>
          23 3 1 2 2.</_></rects>
      <tilted>0</tilted></_>
    <_>
      <rects>
        <_>
          23 6 1 2 -1.</_>
        <_>
          23 7 1 1 2.</_></rects>
      <tilted>0</tilted></_>
    <_>
      <rects>
        <_>
          23 15 1 2 -1.</_>
        <_>
          23 16 1 1 2.</_></rects>
      <tilted>0</tilted></_></features></cascade>
</opencv_storage>
