<?xml version="1.0"?>
<opencv_storage>
<stage12>
  <maxWeakCount>5</maxWeakCount>
  <stageThreshold>-3.0941507220268250e-01</stageThreshold>
  <weakClassifiers>
    <_>
      <internalNodes>
        0 -1 157943 -1.4417327474802732e-04</internalNodes>
      <leafValues>
        -7.5999999046325684e-01 4.1052630543708801e-01</leafValues></_>
    <_>
      <internalNodes>
        0 -1 87840 1.3338020071387291e-03</internalNodes>
      <leafValues>
        -3.2931366562843323e-01 9.2742103338241577e-01</leafValues></_>
    <_>
      <internalNodes>
        0 -1 97426 -3.5863560624420643e-03</internalNodes>
      <leafValues>
        -2.3557545244693756e-01 8.8096153736114502e-01</leafValues></_>
    <_>
      <internalNodes>
        0 -1 44394 6.2579574296250939e-04</internalNodes>
      <leafValues>
        3.8293334841728210e-01 -7.4469590187072754e-01</leafValues></_>
    <_>
      <internalNodes>
        0 -1 138746 -1.7557860701344907e-04</internalNodes>
      <leafValues>
        -5.1718056201934814e-01 5.8964359760284424e-01</leafValues></_></weakClassifiers></stage12>
</opencv_storage>
