<?xml version="1.0"?>
<opencv_storage>
<stage14>
  <maxWeakCount>5</maxWeakCount>
  <stageThreshold>-2.3615649342536926e-01</stageThreshold>
  <weakClassifiers>
    <_>
      <internalNodes>
        0 -1 70718 -3.9769811555743217e-03</internalNodes>
      <leafValues>
        5.4666668176651001e-01 -4.6666666865348816e-01</leafValues></_>
    <_>
      <internalNodes>
        0 -1 3202 1.0348292562412098e-04</internalNodes>
      <leafValues>
        5.1964998245239258e-01 -6.1733621358871460e-01</leafValues></_>
    <_>
      <internalNodes>
        0 -1 13801 6.9282567128539085e-03</internalNodes>
      <leafValues>
        -3.1657245755195618e-01 8.8316273689270020e-01</leafValues></_>
    <_>
      <internalNodes>
        0 -1 92448 -1.5121673233807087e-02</internalNodes>
      <leafValues>
        9.4026011228561401e-01 -2.4761520326137543e-01</leafValues></_>
    <_>
      <internalNodes>
        0 -1 80760 -1.9976125622633845e-04</internalNodes>
      <leafValues>
        -7.3822438716888428e-01 3.9870068430900574e-01</leafValues></_></weakClassifiers></stage14>
</opencv_storage>
