<?xml version="1.0"?>
<opencv_storage>
<stage6>
  <maxWeakCount>20</maxWeakCount>
  <stageThreshold>-8.9549654722213745e-01</stageThreshold>
  <weakClassifiers>
    <_>
      <internalNodes>
        0 -1 114167 1.9880732521414757e-02</internalNodes>
      <leafValues>
        -3.4057971835136414e-01 2.9012346267700195e-01</leafValues></_>
    <_>
      <internalNodes>
        0 -1 50264 4.4580481946468353e-02</internalNodes>
      <leafValues>
        -1.2939704954624176e-01 6.1528164148330688e-01</leafValues></_>
    <_>
      <internalNodes>
        0 -1 71775 -5.6989323347806931e-03</internalNodes>
      <leafValues>
        5.5362015962600708e-01 -1.8866235017776489e-01</leafValues></_>
    <_>
      <internalNodes>
        0 -1 8518 -1.2790471315383911e-01</internalNodes>
      <leafValues>
        4.0669444203376770e-01 -1.8015509843826294e-01</leafValues></_>
    <_>
      <internalNodes>
        0 -1 124142 2.4711601436138153e-02</internalNodes>
      <leafValues>
        -1.5854470431804657e-01 3.8554990291595459e-01</leafValues></_>
    <_>
      <internalNodes>
        0 -1 161263 1.7177808331325650e-04</internalNodes>
      <leafValues>
        1.7793942987918854e-01 -4.7791403532028198e-01</leafValues></_>
    <_>
      <internalNodes>
        0 -1 9134 -9.5983743667602539e-03</internalNodes>
      <leafValues>
        6.9715577363967896e-01 -1.1570845544338226e-01</leafValues></_>
    <_>
      <internalNodes>
        0 -1 100999 -5.1094191148877144e-03</internalNodes>
      <leafValues>
        5.8851033449172974e-01 -1.0759276896715164e-01</leafValues></_>
    <_>
      <internalNodes>
        0 -1 106288 -1.4396148035302758e-03</internalNodes>
      <leafValues>
        5.0108444690704346e-01 -1.4502948522567749e-01</leafValues></_>
    <_>
      <internalNodes>
        0 -1 3908 -1.2148097157478333e-01</internalNodes>
      <leafValues>
        2.6246115565299988e-01 -3.0847099423408508e-01</leafValues></_>
    <_>
      <internalNodes>
        0 -1 95088 2.5910371914505959e-03</internalNodes>
      <leafValues>
        -1.2968611717224121e-01 5.4231840372085571e-01</leafValues></_>
    <_>
      <internalNodes>
        0 -1 129644 -1.7058309167623520e-02</internalNodes>
      <leafValues>
        5.6559777259826660e-01 -1.4804525673389435e-01</leafValues></_>
    <_>
      <internalNodes>
        0 -1 162126 -3.3541792072355747e-03</internalNodes>
      <leafValues>
        -5.2665621042251587e-01 1.4269571006298065e-01</leafValues></_>
    <_>
      <internalNodes>
        0 -1 120929 2.6343634817749262e-03</internalNodes>
      <leafValues>
        -1.7735145986080170e-01 4.2999774217605591e-01</leafValues></_>
    <_>
      <internalNodes>
        0 -1 123695 -1.1023613624274731e-03</internalNodes>
      <leafValues>
        3.4537148475646973e-01 -2.1379405260086060e-01</leafValues></_>
    <_>
      <internalNodes>
        0 -1 15369 -1.2761855032294989e-04</internalNodes>
      <leafValues>
        -3.9186120033264160e-01 1.9426050782203674e-01</leafValues></_>
    <_>
      <internalNodes>
        0 -1 134364 3.8467389531433582e-03</internalNodes>
      <leafValues>
        -1.5681566298007965e-01 5.6217360496520996e-01</leafValues></_>
    <_>
      <internalNodes>
        0 -1 133071 2.0358881447464228e-03</internalNodes>
      <leafValues>
        -1.2343373149633408e-01 5.8605796098709106e-01</leafValues></_>
    <_>
      <internalNodes>
        0 -1 37029 -1.2351621687412262e-01</internalNodes>
      <leafValues>
        -8.1415802240371704e-01 1.0562534630298615e-01</leafValues></_>
    <_>
      <internalNodes>
        0 -1 49197 -1.0257815942168236e-02</internalNodes>
      <leafValues>
        2.9943740367889404e-01 -2.3974944651126862e-01</leafValues></_></weakClassifiers></stage6>
</opencv_storage>
