<?xml version="1.0"?>
<opencv_storage>
<stage30>
  <maxWeakCount>5</maxWeakCount>
  <stageThreshold>-4.4395098090171814e-01</stageThreshold>
  <weakClassifiers>
    <_>
      <internalNodes>
        0 -1 49805 7.5074145570397377e-04</internalNodes>
      <leafValues>
        -3.0000001192092896e-01 6.3333332538604736e-01</leafValues></_>
    <_>
      <internalNodes>
        0 -1 70716 6.6812259319704026e-05</internalNodes>
      <leafValues>
        3.9692604541778564e-01 -6.1508876085281372e-01</leafValues></_>
    <_>
      <internalNodes>
        0 -1 103701 -1.4919490786269307e-04</internalNodes>
      <leafValues>
        6.8490648269653320e-01 -3.3967304229736328e-01</leafValues></_>
    <_>
      <internalNodes>
        0 -1 47142 -8.8491335511207581e-02</internalNodes>
      <leafValues>
        -7.1901088953018188e-01 3.7109339237213135e-01</leafValues></_>
    <_>
      <internalNodes>
        0 -1 74579 -2.2350306971929967e-04</internalNodes>
      <leafValues>
        -4.9361592531204224e-01 5.4823261499404907e-01</leafValues></_></weakClassifiers></stage30>
</opencv_storage>
