<?xml version="1.0"?>
<opencv_storage>
<stage32>
  <maxWeakCount>5</maxWeakCount>
  <stageThreshold>-3.6124134063720703e-01</stageThreshold>
  <weakClassifiers>
    <_>
      <internalNodes>
        0 -1 109223 -1.8223561346530914e-02</internalNodes>
      <leafValues>
        -8.8235294818878174e-01 3.3980581164360046e-01</leafValues></_>
    <_>
      <internalNodes>
        0 -1 127097 1.7578051192685962e-03</internalNodes>
      <leafValues>
        -2.7624249458312988e-01 8.5787934064865112e-01</leafValues></_>
    <_>
      <internalNodes>
        0 -1 115213 -8.4080267697572708e-05</internalNodes>
      <leafValues>
        5.5179345607757568e-01 -3.6330130696296692e-01</leafValues></_>
    <_>
      <internalNodes>
        0 -1 97665 -1.8655166786629707e-04</internalNodes>
      <leafValues>
        -5.5222314596176147e-01 4.8625513911247253e-01</leafValues></_>
    <_>
      <internalNodes>
        0 -1 19630 -2.1638123318552971e-02</internalNodes>
      <leafValues>
        7.2742760181427002e-01 -3.3633807301521301e-01</leafValues></_></weakClassifiers></stage32>
</opencv_storage>
