<?xml version="1.0"?>
<opencv_storage>
<stage29>
  <maxWeakCount>14</maxWeakCount>
  <stageThreshold>-7.0427548885345459e-01</stageThreshold>
  <weakClassifiers>
    <_>
      <internalNodes>
        0 -1 121006 -6.8423477932810783e-04</internalNodes>
      <leafValues>
        2.6027396321296692e-01 -2.8445747494697571e-01</leafValues></_>
    <_>
      <internalNodes>
        0 -1 34676 -1.7097723484039307e-01</internalNodes>
      <leafValues>
        6.1664915084838867e-01 -1.3381765782833099e-01</leafValues></_>
    <_>
      <internalNodes>
        0 -1 114799 -1.7044126987457275e-02</internalNodes>
      <leafValues>
        5.9326016902923584e-01 -1.6534730792045593e-01</leafValues></_>
    <_>
      <internalNodes>
        0 -1 14230 -1.8736922740936279e-01</internalNodes>
      <leafValues>
        4.0070301294326782e-01 -2.2747083008289337e-01</leafValues></_>
    <_>
      <internalNodes>
        0 -1 133723 -8.3157652989029884e-04</internalNodes>
      <leafValues>
        6.6352981328964233e-01 -9.7908601164817810e-02</leafValues></_>
    <_>
      <internalNodes>
        0 -1 76348 -1.2965748086571693e-02</internalNodes>
      <leafValues>
        -8.6266994476318359e-02 8.7296223640441895e-01</leafValues></_>
    <_>
      <internalNodes>
        0 -1 144986 1.0015403851866722e-02</internalNodes>
      <leafValues>
        -1.1512615531682968e-01 5.4622071981430054e-01</leafValues></_>
    <_>
      <internalNodes>
        0 -1 131338 -2.8658129274845123e-02</internalNodes>
      <leafValues>
        -7.8733253479003906e-01 1.1302405595779419e-01</leafValues></_>
    <_>
      <internalNodes>
        0 -1 150984 -2.1488226775545627e-04</internalNodes>
      <leafValues>
        3.9258155226707458e-01 -2.1136221289634705e-01</leafValues></_>
    <_>
      <internalNodes>
        0 -1 159237 1.8687185365706682e-03</internalNodes>
      <leafValues>
        1.3448971509933472e-01 -6.4855808019638062e-01</leafValues></_>
    <_>
      <internalNodes>
        0 -1 113926 -4.2806155397556722e-04</internalNodes>
      <leafValues>
        5.5138128995895386e-01 -1.5330635011196136e-01</leafValues></_>
    <_>
      <internalNodes>
        0 -1 20369 -2.1230373531579971e-02</internalNodes>
      <leafValues>
        -8.1106388568878174e-01 1.1914151161909103e-01</leafValues></_>
    <_>
      <internalNodes>
        0 -1 133735 1.0333288228139281e-03</internalNodes>
      <leafValues>
        -2.6349189877510071e-01 3.6524099111557007e-01</leafValues></_>
    <_>
      <internalNodes>
        0 -1 7409 1.2994416756555438e-03</internalNodes>
      <leafValues>
        1.3170407712459564e-01 -8.9199233055114746e-01</leafValues></_></weakClassifiers></stage29>
</opencv_storage>
