<?xml version="1.0"?>
<opencv_storage>
<stage6>
  <maxWeakCount>5</maxWeakCount>
  <stageThreshold>-4.3167066574096680e-01</stageThreshold>
  <weakClassifiers>
    <_>
      <internalNodes>
        0 -1 854 2.7839192748069763e-01</internalNodes>
      <leafValues>
        6.2025314569473267e-01 -7.0731705427169800e-01</leafValues></_>
    <_>
      <internalNodes>
        0 -1 143732 -5.8132016420131549e-05</internalNodes>
      <leafValues>
        6.6534554958343506e-01 -5.1487964391708374e-01</leafValues></_>
    <_>
      <internalNodes>
        0 -1 85 -9.3042370281182230e-05</internalNodes>
      <leafValues>
        -6.6284698247909546e-01 4.6778306365013123e-01</leafValues></_>
    <_>
      <internalNodes>
        0 -1 69315 -6.2394043197855353e-04</internalNodes>
      <leafValues>
        1. -3.5750359296798706e-01</leafValues></_>
    <_>
      <internalNodes>
        0 -1 157056 2.6379881892353296e-03</internalNodes>
      <leafValues>
        -4.7050809860229492e-01 6.8024659156799316e-01</leafValues></_></weakClassifiers></stage6>
</opencv_storage>
