<?xml version="1.0"?>
<opencv_storage>
<stage23>
  <maxWeakCount>18</maxWeakCount>
  <stageThreshold>-1.0309640169143677e+00</stageThreshold>
  <weakClassifiers>
    <_>
      <internalNodes>
        0 -1 159714 -4.0653301402926445e-03</internalNodes>
      <leafValues>
        3.5490605980157852e-02 -7.0370370149612427e-01</leafValues></_>
    <_>
      <internalNodes>
        0 -1 135586 -6.5146133303642273e-02</internalNodes>
      <leafValues>
        -1.9023951888084412e-01 3.8985949754714966e-01</leafValues></_>
    <_>
      <internalNodes>
        0 -1 101018 5.0255036912858486e-03</internalNodes>
      <leafValues>
        -1.1954335868358612e-01 4.8713281750679016e-01</leafValues></_>
    <_>
      <internalNodes>
        0 -1 41817 -2.4947761557996273e-03</internalNodes>
      <leafValues>
        4.0390115976333618e-01 -2.4359485507011414e-01</leafValues></_>
    <_>
      <internalNodes>
        0 -1 75728 -1.3614494353532791e-02</internalNodes>
      <leafValues>
        -1.6911181807518005e-01 4.7734147310256958e-01</leafValues></_>
    <_>
      <internalNodes>
        0 -1 101654 -5.8521054685115814e-02</internalNodes>
      <leafValues>
        2.0309473574161530e-01 -4.5910486578941345e-01</leafValues></_>
    <_>
      <internalNodes>
        0 -1 756 1.3656784780323505e-02</internalNodes>
      <leafValues>
        1.8588922917842865e-01 -4.1530227661132813e-01</leafValues></_>
    <_>
      <internalNodes>
        0 -1 26844 -9.1835604980587959e-03</internalNodes>
      <leafValues>
        -4.3835195899009705e-01 2.1199169754981995e-01</leafValues></_>
    <_>
      <internalNodes>
        0 -1 161593 1.1222742032259703e-03</internalNodes>
      <leafValues>
        1.1682429164648056e-01 -5.1645678281784058e-01</leafValues></_>
    <_>
      <internalNodes>
        0 -1 151142 7.7673036139458418e-04</internalNodes>
      <leafValues>
        -1.9616305828094482e-01 3.4488597512245178e-01</leafValues></_>
    <_>
      <internalNodes>
        0 -1 13176 5.7740323245525360e-04</internalNodes>
      <leafValues>
        1.2744612991809845e-01 -5.5501407384872437e-01</leafValues></_>
    <_>
      <internalNodes>
        0 -1 109001 -1.3538267230615020e-03</internalNodes>
      <leafValues>
        3.6774915456771851e-01 -2.1662679314613342e-01</leafValues></_>
    <_>
      <internalNodes>
        0 -1 125421 2.8733437648043036e-04</internalNodes>
      <leafValues>
        -2.1732254326343536e-01 3.8622391223907471e-01</leafValues></_>
    <_>
      <internalNodes>
        0 -1 70427 5.6515907635912299e-04</internalNodes>
      <leafValues>
        1.9943809509277344e-01 -4.4154176115989685e-01</leafValues></_>
    <_>
      <internalNodes>
        0 -1 111132 -4.8880334943532944e-03</internalNodes>
      <leafValues>
        4.3028497695922852e-01 -2.0120024681091309e-01</leafValues></_>
    <_>
      <internalNodes>
        0 -1 17855 5.3281318396329880e-03</internalNodes>
      <leafValues>
        -1.7162761092185974e-01 5.0564241409301758e-01</leafValues></_>
    <_>
      <internalNodes>
        0 -1 49721 -5.4747629910707474e-03</internalNodes>
      <leafValues>
        -5.1653802394866943e-01 1.7111535370349884e-01</leafValues></_>
    <_>
      <internalNodes>
        0 -1 161934 5.1876353099942207e-03</internalNodes>
      <leafValues>
        9.3519270420074463e-02 -8.3957690000534058e-01</leafValues></_></weakClassifiers></stage23>
</opencv_storage>
