<?xml version="1.0"?>
<opencv_storage>
<stage19>
  <maxWeakCount>20</maxWeakCount>
  <stageThreshold>-9.1502910852432251e-01</stageThreshold>
  <weakClassifiers>
    <_>
      <internalNodes>
        0 -1 38710 9.8931510001420975e-03</internalNodes>
      <leafValues>
        -1.5283842384815216e-01 4.4615384936332703e-01</leafValues></_>
    <_>
      <internalNodes>
        0 -1 156753 4.7178767621517181e-02</internalNodes>
      <leafValues>
        -7.6312460005283356e-02 7.8012704849243164e-01</leafValues></_>
    <_>
      <internalNodes>
        0 -1 16401 -3.7817280739545822e-02</internalNodes>
      <leafValues>
        -7.8191131353378296e-01 7.0191115140914917e-02</leafValues></_>
    <_>
      <internalNodes>
        0 -1 30474 7.1571441367268562e-03</internalNodes>
      <leafValues>
        -5.3356599062681198e-02 6.5704917907714844e-01</leafValues></_>
    <_>
      <internalNodes>
        0 -1 135182 8.4941834211349487e-03</internalNodes>
      <leafValues>
        -9.5946766436100006e-02 7.1456575393676758e-01</leafValues></_>
    <_>
      <internalNodes>
        0 -1 126406 -7.0995762944221497e-03</internalNodes>
      <leafValues>
        -1.0854177922010422e-01 5.5393177270889282e-01</leafValues></_>
    <_>
      <internalNodes>
        0 -1 105470 -2.8687766753137112e-03</internalNodes>
      <leafValues>
        3.3936613798141479e-01 -1.9301652908325195e-01</leafValues></_>
    <_>
      <internalNodes>
        0 -1 113076 -2.5562150403857231e-04</internalNodes>
      <leafValues>
        4.5445936918258667e-01 -1.5356594324111938e-01</leafValues></_>
    <_>
      <internalNodes>
        0 -1 156784 5.5140731856226921e-03</internalNodes>
      <leafValues>
        1.3456566631793976e-01 -5.1268547773361206e-01</leafValues></_>
    <_>
      <internalNodes>
        0 -1 158995 -1.3645720668137074e-02</internalNodes>
      <leafValues>
        -5.4659807682037354e-01 1.3387782871723175e-01</leafValues></_>
    <_>
      <internalNodes>
        0 -1 37816 3.9622993208467960e-03</internalNodes>
      <leafValues>
        -1.3277448713779449e-01 6.5692377090454102e-01</leafValues></_>
    <_>
      <internalNodes>
        0 -1 6544 -2.5040172040462494e-02</internalNodes>
      <leafValues>
        2.5141787528991699e-01 -2.9086774587631226e-01</leafValues></_>
    <_>
      <internalNodes>
        0 -1 125526 -2.3606449365615845e-02</internalNodes>
      <leafValues>
        5.6468951702117920e-01 -1.3288410007953644e-01</leafValues></_>
    <_>
      <internalNodes>
        0 -1 107843 2.7512224391102791e-02</internalNodes>
      <leafValues>
        -1.3989666104316711e-01 5.6583261489868164e-01</leafValues></_>
    <_>
      <internalNodes>
        0 -1 4984 6.6207474446855485e-05</internalNodes>
      <leafValues>
        2.2044187784194946e-01 -3.1951299309730530e-01</leafValues></_>
    <_>
      <internalNodes>
        0 -1 141956 9.7018107771873474e-04</internalNodes>
      <leafValues>
        -1.2694497406482697e-01 6.5824449062347412e-01</leafValues></_>
    <_>
      <internalNodes>
        0 -1 143161 1.0922400542767718e-04</internalNodes>
      <leafValues>
        -2.3376658558845520e-01 3.0798664689064026e-01</leafValues></_>
    <_>
      <internalNodes>
        0 -1 13335 2.3223892785608768e-03</internalNodes>
      <leafValues>
        -1.7503125965595245e-01 4.0986177325248718e-01</leafValues></_>
    <_>
      <internalNodes>
        0 -1 84 -9.3679409474134445e-04</internalNodes>
      <leafValues>
        -6.8489331007003784e-01 9.4308741390705109e-02</leafValues></_>
    <_>
      <internalNodes>
        0 -1 59464 5.1786331459879875e-03</internalNodes>
      <leafValues>
        -1.2120428681373596e-01 6.8036425113677979e-01</leafValues></_></weakClassifiers></stage19>
</opencv_storage>
