<?xml version="1.0"?>
<opencv_storage>
<stage35>
  <maxWeakCount>7</maxWeakCount>
  <stageThreshold>-1.4587161131203175e-02</stageThreshold>
  <weakClassifiers>
    <_>
      <internalNodes>
        0 -1 141032 -1.2035492109134793e-03</internalNodes>
      <leafValues>
        -6.6666668653488159e-01 3.7500000000000000e-01</leafValues></_>
    <_>
      <internalNodes>
        0 -1 63047 -1.6633713245391846e-01</internalNodes>
      <leafValues>
        -3.1480243802070618e-01 7.4193674325942993e-01</leafValues></_>
    <_>
      <internalNodes>
        0 -1 47513 -1.6986485570669174e-04</internalNodes>
      <leafValues>
        -3.1981506943702698e-01 6.7992615699768066e-01</leafValues></_>
    <_>
      <internalNodes>
        0 -1 157604 9.0896101028192788e-05</internalNodes>
      <leafValues>
        3.1663835048675537e-01 -7.2079473733901978e-01</leafValues></_>
    <_>
      <internalNodes>
        0 -1 24776 -5.3952113375999033e-05</internalNodes>
      <leafValues>
        -4.8454239964485168e-01 4.8098319768905640e-01</leafValues></_>
    <_>
      <internalNodes>
        0 -1 121189 4.8416960053145885e-03</internalNodes>
      <leafValues>
        -3.0900338292121887e-01 8.5614919662475586e-01</leafValues></_>
    <_>
      <internalNodes>
        0 -1 47932 -3.4838765859603882e-03</internalNodes>
      <leafValues>
        8.1973320245742798e-01 -2.4358782172203064e-01</leafValues></_></weakClassifiers></stage35>
</opencv_storage>
