<?xml version="1.0"?>
<opencv_storage>
<stage11>
  <maxWeakCount>5</maxWeakCount>
  <stageThreshold>-2.7769741415977478e-01</stageThreshold>
  <weakClassifiers>
    <_>
      <internalNodes>
        0 -1 61130 -2.5024428963661194e-02</internalNodes>
      <leafValues>
        7.5000000000000000e-01 -3.4375000000000000e-01</leafValues></_>
    <_>
      <internalNodes>
        0 -1 161325 -6.8423464894294739e-02</internalNodes>
      <leafValues>
        6.0763800144195557e-01 -4.1100683808326721e-01</leafValues></_>
    <_>
      <internalNodes>
        0 -1 98419 -3.0133228749036789e-02</internalNodes>
      <leafValues>
        -5.3456109762191772e-01 5.4073941707611084e-01</leafValues></_>
    <_>
      <internalNodes>
        0 -1 87149 2.7387874433770776e-04</internalNodes>
      <leafValues>
        -3.6918887495994568e-01 8.5346519947052002e-01</leafValues></_>
    <_>
      <internalNodes>
        0 -1 162122 -5.2142317872494459e-04</internalNodes>
      <leafValues>
        -9.6866381168365479e-01 3.6216458678245544e-01</leafValues></_></weakClassifiers></stage11>
</opencv_storage>
