<?xml version="1.0"?>
<opencv_storage>
<stage27>
  <maxWeakCount>7</maxWeakCount>
  <stageThreshold>-6.1795920133590698e-02</stageThreshold>
  <weakClassifiers>
    <_>
      <internalNodes>
        0 -1 7934 6.1220139265060425e-02</internalNodes>
      <leafValues>
        3.9130434393882751e-01 -5.7142859697341919e-01</leafValues></_>
    <_>
      <internalNodes>
        0 -1 14256 -6.1803814023733139e-03</internalNodes>
      <leafValues>
        7.6269203424453735e-01 -2.5100737810134888e-01</leafValues></_>
    <_>
      <internalNodes>
        0 -1 101698 -1.3624108396470547e-02</internalNodes>
      <leafValues>
        7.7949076890945435e-01 -2.4061602354049683e-01</leafValues></_>
    <_>
      <internalNodes>
        0 -1 6661 1.5415818779729307e-04</internalNodes>
      <leafValues>
        2.6372170448303223e-01 -9.0100193023681641e-01</leafValues></_>
    <_>
      <internalNodes>
        0 -1 39128 1.6465611755847931e-02</internalNodes>
      <leafValues>
        5.5562949180603027e-01 -5.4293829202651978e-01</leafValues></_>
    <_>
      <internalNodes>
        0 -1 968 -5.3169049322605133e-02</internalNodes>
      <leafValues>
        6.5498334169387817e-01 -3.7308174371719360e-01</leafValues></_>
    <_>
      <internalNodes>
        0 -1 54288 -3.3140764571726322e-03</internalNodes>
      <leafValues>
        7.6223808526992798e-01 -2.6312941312789917e-01</leafValues></_></weakClassifiers></stage27>
</opencv_storage>
